-0.079413,0.038959,0.072500,-0.011150,0.036792,0.036556,-0.025317,-0.052126,-0.021343,0.057825,0.023928,0.023571,-0.042024,-0.078548,-0.069427,-0.079393,0.070865,-0.024700,-0.001016,-0.028685,-0.081624,0.083746,-0.031249,0.070191,-0.078555,0.055760,0.014052,0.017872,-0.019009,-0.006902
-0.044002,0.044075,-0.058591,-0.008563,0.036842,-0.050597,0.080569,0.066885,0.084457,-0.081492,-0.023364,0.037724,0.003984,0.032665,0.069796,0.043436,0.084404,-0.059475,-0.021555,-0.013653,-0.019301,0.050770,-0.062115,0.039982,-0.071822,0.043079,-0.012736,-0.039446,-0.035542,-0.049498
0.045987,-0.075538,0.036285,0.052261,-0.016780,0.049218,-0.039483,-0.018006,-0.009210,0.079375,0.077847,-0.001705,0.012421,-0.041412,-0.084133,-0.020971,0.012276,-0.021481,0.017123,0.027818,-0.023466,0.056751,-0.003489,0.032947,0.006302,-0.052568,-0.070229,0.065793,-0.083236,0.018343
0.004785,-0.061243,0.007845,0.007089,0.055922,-0.003848,0.034350,0.070820,-0.002492,0.062493,0.064113,0.063017,0.071245,0.005469,-0.076357,-0.007632,-0.059411,-0.052516,0.043844,-0.034270,0.010998,-0.024630,0.050302,-0.021504,0.006755,-0.006317,0.059216,-0.016305,0.016158,0.034053
0.008293,0.040896,-0.042940,0.002563,-0.048144,0.083311,-0.081703,-0.017904,-0.040600,-0.044320,0.012090,0.081939,0.002201,0.013061,-0.009176,-0.043382,-0.039611,0.071170,-0.072237,-0.056181,0.019490,-0.084959,-0.011400,0.004924,0.067062,0.046361,-0.085179,0.003170,-0.074179,0.024918
-0.011333,-0.020770,-0.027866,0.020419,-0.032173,-0.020965,-0.077289,-0.063470,0.044175,0.066546,-0.029525,-0.048520,-0.051084,-0.064962,0.020671,-0.015570,0.028554,-0.043102,0.018080,-0.033543,-0.060866,0.039057,-0.020610,0.060867,0.068138,-0.012458,0.034412,-0.048362,0.072030,0.054545
0.074712,-0.043117,0.003167,-0.030721,-0.042687,-0.058126,0.023221,-0.053113,0.015054,-0.073493,-0.032638,-0.051773,-0.013351,0.005628,-0.046964,0.080132,0.047267,0.068454,0.067942,0.063505,-0.023058,0.061532,0.045421,0.002262,0.057357,-0.034694,-0.038502,0.055968,-0.079448,0.029957
0.036764,-0.038178,0.022379,0.018308,-0.013323,0.083950,-0.012765,0.075890,0.002358,-0.047887,-0.063094,0.063804,-0.054230,-0.057760,-0.021535,-0.000770,-0.079358,-0.053642,0.025479,-0.023795,0.064809,-0.051941,-0.017243,0.052428,-0.084235,0.014487,-0.001044,-0.042385,-0.021696,0.055735
0.015559,0.048153,0.073272,-0.038031,0.071450,0.076051,-0.072956,0.004737,-0.015912,0.029894,-0.044741,-0.069199,0.045853,-0.046905,0.072806,-0.066990,-0.024395,0.073315,-0.013842,-0.040343,-0.019253,0.000889,0.041378,0.083060,0.037920,0.057917,-0.050401,-0.068564,0.057271,-0.085498
-0.068072,-0.002179,0.032609,-0.070733,0.051863,0.084694,0.038585,0.011818,0.006648,0.005469,-0.054120,-0.055062,0.084174,0.000959,-0.018396,0.030149,-0.013596,0.008052,-0.068355,-0.012220,0.057338,0.075286,0.035735,-0.035504,-0.078260,0.066771,-0.037229,0.073434,-0.062880,0.076222
0.031709,-0.008687,-0.027638,0.033277,0.004446,-0.023393,-0.025083,0.004405,0.080862,-0.032608,-0.031384,-0.063770,0.000998,0.084374,0.014091,-0.034109,-0.083021,0.059202,-0.066712,-0.025746,-0.004286,0.022459,0.076471,-0.030067,0.078121,-0.040086,0.081771,0.057775,0.028081,-0.005691
0.076030,-0.032165,-0.071156,0.079713,-0.022502,0.002613,0.045256,-0.058639,-0.060953,-0.050333,0.077353,-0.025320,0.005267,0.052700,-0.010503,-0.017315,-0.028113,0.012084,-0.085383,0.067908,-0.046576,-0.030092,0.010942,0.044604,0.064054,-0.045019,0.085101,-0.085537,-0.031860,-0.082163
-0.085031,-0.029972,0.089571,0.070531,-0.042939,-0.053082,0.079844,0.001544,-0.021578,-0.028565,-0.010546,0.033388,0.129284,-0.033896,-0.021507,0.042549,0.106941,-0.048775,0.013437,-0.014136,0.018152,-0.058605,-0.044739,0.052949,0.008188,0.000359,-0.011673,0.053208,-0.086932,0.000119
-0.075744,-0.029520,0.094860,0.162174,-0.022466,0.020391,0.033193,0.029533,-0.009012,0.012673,-0.020575,-0.086899,0.078303,0.039925,0.035230,-0.019592,0.052858,-0.028502,0.037732,-0.092572,0.079197,0.030409,0.058365,-0.149811,0.020580,-0.003042,0.108743,0.085484,-0.029804,-0.041407
0.011789,0.092567,0.014747,0.159972,0.018330,0.062748,-0.029875,-0.098930,0.059680,0.051129,0.054993,0.034354,0.165528,0.019298,0.019363,0.083041,-0.030317,0.032423,0.002108,0.019036,0.003597,0.057310,0.139594,-0.096400,-0.162610,0.030015,0.106578,0.057227,-0.010854,-0.033626
-0.032147,-0.035668,0.064097,0.041113,-0.053286,-0.082453,0.082520,0.033667,0.077968,0.019377,0.059705,0.095862,0.117699,0.077174,-0.039218,-0.052616,0.084366,0.006624,-0.046776,0.042443,0.041970,-0.034684,-0.027374,0.005808,-0.109790,0.051695,0.073142,0.051084,0.024274,-0.066017
-0.084609,-0.055503,-0.008380,0.001523,-0.064338,0.053546,-0.042142,0.049123,0.004078,0.013398,0.063565,-0.019807,-0.053897,-0.074549,0.003908,0.029609,-0.009995,-0.050780,0.000391,-0.075971,0.017544,0.050921,-0.000261,-0.013501,-0.018175,-0.078353,0.036315,0.062657,-0.042367,0.038496
0.081154,0.043414,0.059691,-0.052667,0.059132,0.084222,-0.045992,0.071025,0.068020,0.060871,-0.079564,-0.021424,0.076536,-0.032881,0.043624,0.032837,0.052467,-0.076410,0.075892,-0.030045,0.073317,0.051573,-0.014257,-0.073830,0.045234,-0.025042,-0.043525,0.008103,0.063035,-0.015114
0.042403,-0.045432,0.076767,0.008269,-0.048303,-0.039980,-0.030608,-0.051528,-0.075451,0.020130,-0.000010,0.026391,-0.016588,0.040272,-0.076948,-0.004078,-0.032767,-0.051667,0.050606,-0.021913,-0.012934,0.007593,0.042225,0.024604,0.009221,0.061158,0.033162,-0.039247,0.004179,-0.050034
0.084382,-0.015628,0.048539,0.074770,0.056233,-0.056342,-0.055728,-0.017030,0.053764,0.082582,0.063330,0.044465,-0.076320,0.084328,0.035621,0.000146,0.050924,0.025350,-0.005804,0.059779,-0.050093,0.038662,0.038132,0.078283,0.082312,0.035754,-0.000676,-0.009391,0.026385,0.082127
-0.045246,-0.061332,0.046597,0.049575,-0.028301,0.031077,0.076366,0.033496,0.078941,-0.047367,0.083616,-0.036147,0.000102,0.015849,-0.036894,0.000002,0.025910,0.056349,0.064533,-0.079676,-0.025868,-0.003368,-0.069810,-0.067422,0.035702,-0.032712,-0.067718,-0.023695,0.058204,-0.083424
-0.050641,0.010598,-0.062806,-0.023588,-0.074053,-0.000262,-0.082622,0.025151,-0.050069,0.071755,0.079480,-0.030085,-0.028518,-0.064035,-0.064429,-0.060424,-0.072847,-0.037637,-0.067438,0.069605,-0.016586,0.040804,0.067905,0.039547,-0.067210,-0.026614,-0.050229,-0.015633,0.063533,-0.033066
-0.074631,-0.055457,0.042229,-0.030052,-0.009951,-0.062651,0.026021,-0.061705,-0.034911,0.021924,0.031484,-0.076010,0.031789,0.080690,0.048257,0.073471,0.000994,0.070407,-0.074946,-0.069892,-0.053418,-0.018455,0.000225,-0.048738,0.052724,0.016243,-0.004177,-0.022750,0.017044,0.077098
0.027700,-0.022922,-0.041572,-0.017677,0.069735,0.079564,-0.016790,-0.081350,0.035486,0.006871,0.032097,0.045929,-0.036510,-0.003774,0.007168,0.040790,-0.038321,0.045041,-0.017655,0.070956,-0.071712,-0.018126,-0.061114,0.085255,-0.032569,-0.030944,0.021700,0.020735,-0.017499,0.012299
-0.046674,0.039659,0.076929,0.020409,-0.021190,-0.016667,0.020044,-0.040527,-0.007063,0.056193,0.038990,-0.045730,-0.006538,-0.034586,0.049303,0.018027,0.016256,-0.022291,0.003890,-0.079578,0.070698,0.020566,-0.000387,0.025153,-0.079805,-0.025212,-0.018689,0.023813,0.047020,-0.062032
0.062472,0.078837,0.018215,0.072958,-0.038840,-0.002911,-0.011901,0.060044,0.014786,0.010519,0.080811,-0.064883,0.072987,-0.002916,-0.038461,-0.000977,0.013382,0.064953,0.073383,0.017980,-0.015815,-0.078459,-0.013393,-0.055448,0.080388,0.078309,-0.024255,-0.030748,-0.033221,-0.040539
-0.036863,0.054347,0.024561,0.005020,0.065129,0.031317,0.078222,0.066674,-0.078859,-0.083123,0.026307,0.072279,0.029599,-0.077284,-0.015629,-0.081523,-0.015433,0.001361,0.047000,0.056387,0.076381,0.057367,0.080730,0.058843,-0.022729,0.047663,0.013379,-0.051011,-0.081259,-0.064875
0.070793,-0.055780,-0.058766,0.035742,0.023149,0.055732,0.052599,-0.076544,-0.052370,-0.037408,0.049275,-0.021452,0.026471,0.066705,-0.084804,0.038454,-0.043152,-0.084811,-0.007593,-0.081741,0.053539,-0.073378,0.039726,0.069004,0.035991,0.025859,0.006684,0.067126,-0.057354,-0.014193
0.057232,-0.077363,0.009532,0.062120,-0.069484,-0.048226,-0.006796,0.002748,0.009082,0.071098,-0.040537,-0.053683,-0.071751,-0.055982,0.060269,-0.032626,-0.019399,0.062956,0.024988,0.005433,0.064459,0.073947,-0.009995,0.001257,0.050418,0.058662,0.018367,0.050290,-0.003714,-0.064694
0.055310,0.004551,0.055694,0.008634,0.076201,-0.070862,0.034508,0.022239,0.074196,0.007308,-0.067885,0.022092,-0.004394,-0.042739,0.045573,0.026896,-0.049955,-0.034718,-0.029847,-0.068305,-0.022832,0.027497,0.016892,0.067514,-0.008840,0.070770,0.044714,0.047136,-0.019742,-0.077406
-0.032873,0.039614,-0.039347,-0.009596,-0.082462,0.077283,-0.018188,-0.058787,-0.067838,-0.080771,-0.032455,-0.008212,0.081288,-0.011678,0.085527,-0.071905,0.007469,-0.003690,-0.074126,0.002247,-0.026442,0.068714,-0.035700,-0.051020,0.039376,0.044225,0.001380,-0.068904,0.037944,0.048881
-0.000472,-0.000070,0.059361,-0.068832,-0.081498,-0.078760,-0.019926,-0.085323,0.050124,0.032894,0.020259,0.078177,0.067534,0.026098,0.042137,-0.034869,-0.038616,0.082806,-0.032114,0.002684,0.024301,-0.070147,0.052903,0.034782,-0.014056,0.036879,0.083394,-0.048972,-0.045023,-0.033138
-0.025381,0.097939,0.053195,0.048249,0.028837,-0.080853,0.044436,0.076102,-0.030294,-0.088590,-0.089251,-0.042792,-0.059756,-0.038461,-0.008913,-0.095156,-0.035683,-0.128744,0.023787,-0.012233,-0.034504,0.102324,0.030436,0.076483,-0.002009,-0.028147,0.052202,0.105084,-0.008810,-0.099781
-0.035480,0.123291,-0.019554,-0.071493,-0.078771,-0.059449,-0.060510,-0.008413,-0.023504,-0.106536,-0.119402,-0.036904,0.019383,0.033754,0.077284,0.020552,0.103724,-0.004543,0.085164,0.007405,0.008786,0.007552,0.007800,-0.071436,0.005132,0.119252,0.126800,0.020960,-0.047183,0.008805
-0.098093,0.189341,0.044815,-0.030747,-0.057084,-0.107098,0.061104,0.071732,-0.014403,-0.041749,-0.197157,-0.141102,0.133703,0.100031,-0.130300,-0.082116,-0.058928,-0.142450,0.152201,-0.049038,-0.070841,0.047632,-0.032725,-0.118226,0.182285,0.055522,0.206716,0.060125,-0.017679,-0.159618
-0.148436,0.214929,0.005590,0.137754,-0.028367,-0.153183,-0.072176,0.150929,-0.126908,-0.048465,-0.237509,-0.133145,0.058321,0.113413,-0.039517,-0.208791,0.103633,-0.182221,0.279101,-0.028065,0.031425,0.109290,0.064196,-0.084199,0.158255,0.032935,0.233700,0.184085,-0.090465,-0.075135
-0.040647,0.074479,0.034110,0.142627,0.063084,-0.091859,-0.025229,0.123097,-0.043924,-0.031314,-0.090153,-0.115238,0.014436,0.124713,-0.012465,-0.110201,0.052997,-0.202544,0.114058,-0.076646,0.110653,-0.039235,-0.070945,0.105864,0.183308,-0.071115,0.167833,0.147954,-0.101295,-0.146295
-0.137833,0.234764,0.085565,0.152522,0.121259,-0.125669,0.004986,0.088655,-0.092213,-0.068644,-0.158693,-0.227711,0.028325,0.128219,0.010780,-0.052777,0.059792,-0.184330,0.160191,-0.035014,-0.030963,-0.007087,0.084111,0.015662,0.261642,-0.014594,0.246720,0.216103,-0.228018,-0.098982
-0.064109,0.184537,0.081878,0.154598,-0.066430,-0.100059,-0.084829,-0.002175,-0.175437,-0.194168,-0.061022,-0.226639,0.104442,0.070792,0.170421,-0.187901,0.108547,-0.296572,0.277558,-0.281722,0.021786,0.058100,0.009115,0.102505,0.426873,0.040172,0.256325,0.188998,-0.234846,-0.133561
-0.068321,0.112557,0.062939,0.109203,0.063508,-0.038879,-0.068020,0.151981,0.125783,-0.193155,-0.021918,-0.273533,0.017933,0.079236,-0.058369,0.102241,0.116851,-0.198825,0.012450,0.015192,-0.045447,0.066941,0.223721,-0.137635,0.323604,0.230502,0.178654,-0.051878,-0.024644,-0.114970
-0.140854,0.143419,0.057240,0.132380,-0.005634,-0.003212,-0.001345,0.264598,0.035438,-0.310388,-0.046388,-0.370736,0.011557,0.091263,-0.115912,-0.044966,0.161081,-0.151340,0.054534,0.022943,-0.032424,0.148288,0.235150,-0.105360,0.434584,0.122498,0.162151,-0.100040,-0.086230,-0.107199
-0.262465,0.054762,0.112774,0.022069,0.095864,-0.079041,-0.061905,0.262070,0.047575,-0.394407,-0.132243,-0.325063,-0.011321,0.049143,0.002390,-0.013654,0.199600,-0.210653,0.149503,-0.014674,-0.038024,0.195713,0.212275,-0.084409,0.376443,0.250619,0.256987,0.032551,-0.103617,-0.238826
-0.290717,0.037656,0.158465,-0.070286,-0.008095,-0.067571,-0.051779,-0.069325,-0.157929,0.107356,-0.005852,-0.074277,0.036059,-0.115684,-0.058086,-0.053835,0.045146,0.050465,-0.079900,0.100499,-0.030989,-0.014978,-0.167517,-0.085249,0.032215,0.170532,0.007358,0.027551,-0.180236,-0.213327
-0.230965,0.414888,0.104293,0.167481,-0.053810,-0.217311,-0.136525,0.091685,0.139469,0.110691,-0.142315,-0.169683,-0.041820,0.100908,-0.061601,0.015970,-0.054040,-0.219736,-0.106782,0.103397,0.019947,0.170848,-0.045513,-0.218422,0.530032,0.139836,0.075560,0.288980,-0.091340,-0.309156
-0.117408,0.263154,0.250945,0.202948,0.046999,-0.222482,-0.128000,0.043177,0.078513,-0.053261,0.050502,-0.054967,-0.015113,0.303758,0.042433,0.201656,-0.222659,-0.233481,-0.170436,0.267599,-0.039453,0.178399,0.146852,-0.189217,0.300513,0.010452,0.211472,0.148211,-0.103307,-0.272107
-0.134182,0.377438,0.277762,0.189148,-0.077111,-0.126855,-0.037802,0.106566,0.061692,-0.191643,-0.051845,-0.226628,0.080785,0.221356,0.061565,0.179521,-0.211197,-0.309897,-0.045230,0.026926,0.066647,0.269897,0.315287,-0.117089,0.513728,0.176551,0.411895,0.159274,-0.107015,-0.291644
-0.157010,0.353285,0.117296,-0.180638,0.007392,0.006940,-0.074573,0.348624,-0.195876,-0.223230,-0.331676,-0.313256,0.005394,0.071260,0.082779,-0.181342,0.098833,-0.369736,0.200417,-0.259215,0.020766,0.359942,0.029152,0.137560,0.209404,0.194415,0.490105,0.240051,0.018251,-0.391568
-0.116186,0.286133,0.136716,-0.037255,-0.057926,-0.046037,-0.023510,0.415454,-0.078433,-0.285066,-0.260299,-0.314349,0.099021,0.075290,0.049989,-0.342880,0.207750,-0.263557,0.319671,-0.303906,-0.001955,0.384785,0.027844,0.063265,0.262623,0.231245,0.356281,0.168742,-0.062291,-0.252004
-0.213184,0.267391,0.092331,-0.024968,0.024536,-0.077249,-0.107729,0.280691,0.117513,-0.209125,-0.386087,-0.356024,0.113327,0.120359,-0.002689,-0.178472,0.264202,-0.280136,0.229360,-0.286633,-0.015242,0.374264,0.080608,0.076595,0.155491,0.179136,0.330081,0.308301,-0.121148,-0.197245
-0.141267,0.179833,-0.021170,-0.062059,0.069095,0.021622,-0.058396,0.237497,-0.122815,-0.224621,-0.259796,-0.285207,0.010542,0.144407,0.005180,-0.176954,0.255693,-0.278767,0.308150,-0.192198,0.007174,0.195992,0.052824,0.015933,0.080784,0.157120,0.197730,0.191701,-0.031186,-0.117962
-0.047058,0.143231,0.154531,0.071995,-0.022615,-0.101629,0.051361,0.269509,-0.058941,-0.079413,-0.146549,-0.172651,0.096997,0.120247,-0.115255,-0.133417,0.130987,-0.232180,0.200569,-0.133561,-0.080423,0.061878,0.059075,0.012604,0.064227,0.029806,0.256728,0.043178,-0.101538,-0.045842
0.029229,0.079216,0.091751,0.080648,0.007110,-0.059545,-0.050462,0.089318,-0.015627,-0.070003,-0.093543,-0.182552,0.087068,0.154344,-0.049109,-0.126846,0.161022,-0.097894,0.289405,-0.126465,0.036868,0.094849,0.017611,-0.202115,0.136641,0.096505,0.230701,-0.021304,-0.088899,-0.100216
-0.046432,0.015586,-0.057386,0.012864,-0.083993,0.038677,-0.037387,-0.025541,0.025556,0.030929,0.041879,-0.006861,-0.013343,-0.067051,-0.036276,-0.020865,-0.012685,0.041793,-0.065064,-0.016749,-0.015604,0.004055,0.002409,0.006084,0.038782,0.054938,0.023435,-0.065090,-0.034533,-0.071036
0.044604,0.042663,-0.078304,-0.081046,-0.056268,-0.067464,0.083479,-0.074851,-0.012484,-0.076425,-0.041758,-0.035162,-0.013313,-0.049652,0.062231,0.051430,0.074323,0.084838,0.033761,-0.020755,-0.014192,-0.028068,0.024423,-0.011064,0.069470,-0.060368,-0.056975,-0.038995,0.072794,0.029088
-0.008256,0.051973,0.003199,-0.071495,-0.060205,-0.065904,0.083765,-0.038249,-0.053514,0.000226,-0.046051,0.019740,-0.004722,-0.017423,0.051152,-0.023427,0.064428,-0.005209,0.060219,-0.019736,-0.083482,-0.052077,0.038715,0.048413,0.077603,-0.063113,-0.055133,0.063337,-0.063274,-0.068026
0.016291,-0.062068,-0.074820,0.061275,0.061925,-0.055495,0.083662,0.000603,0.051605,0.030881,-0.050604,-0.019226,0.014390,-0.083908,-0.059609,0.053041,-0.024823,-0.085596,-0.072018,-0.085594,0.053009,-0.017086,-0.033273,0.048409,0.036388,0.013802,-0.049233,0.021433,0.040132,-0.019563
0.060716,-0.007632,-0.049510,0.010192,-0.005435,0.074862,0.032200,0.041580,-0.056784,0.060539,0.038120,0.006717,-0.012413,-0.024092,0.032093,0.043125,0.050127,-0.065208,0.004631,0.004442,-0.042457,-0.032364,0.067260,-0.000870,-0.024316,0.041665,-0.014305,0.033939,0.021472,0.044308
-0.073990,-0.070156,0.025851,0.061458,0.051934,0.031177,-0.058791,0.008617,-0.074855,-0.066688,0.007328,0.036380,-0.035162,0.052727,-0.057260,-0.075779,0.038554,-0.013736,0.031053,-0.012018,-0.073801,-0.023905,-0.051886,0.081330,0.028755,-0.038535,0.005065,0.067355,-0.061333,0.006217
-0.065927,0.009506,0.097302,0.046871,-0.031084,-0.066755,0.038035,0.094350,0.052660,-0.004631,-0.005068,-0.035175,-0.014055,-0.055750,-0.036371,-0.051456,-0.081323,0.052099,0.039200,-0.037332,-0.015983,-0.036637,0.026506,-0.023203,0.084587,-0.013160,0.073190,-0.003458,0.046809,-0.010262
0.062529,0.171248,0.023149,0.163003,0.016681,0.010896,-0.043943,0.123066,0.124289,-0.005346,-0.107936,-0.136573,-0.026069,0.051051,-0.137817,0.167126,-0.038435,-0.113036,-0.066449,0.010604,0.038596,0.012896,0.113515,-0.126679,-0.015986,0.076104,0.085753,-0.079860,-0.102202,-0.154129
-0.085774,0.251469,-0.096465,0.184228,0.015382,-0.114386,-0.011707,0.125779,0.108434,-0.240003,-0.219085,-0.241005,-0.201902,0.147456,-0.071785,0.088683,0.007781,-0.227923,0.025161,0.026688,0.049902,0.151728,0.194077,-0.025056,0.228179,0.129489,0.091300,-0.077772,0.063655,-0.126754
-0.198361,0.194057,0.089539,0.008669,0.026501,0.042933,-0.051216,0.188062,-0.178731,-0.189490,0.092681,-0.205412,0.124987,0.050186,0.190998,-0.165301,0.117563,-0.102502,0.153065,-0.073099,-0.117537,0.197024,-0.107748,0.199363,0.205466,0.085665,0.139167,0.155217,-0.064372,-0.175353
-0.186595,0.123996,0.184011,-0.046943,0.108688,-0.020126,-0.037882,0.220276,-0.091768,-0.116643,-0.057883,-0.136953,0.126843,0.144575,0.172620,-0.253850,0.045184,-0.203401,0.206740,-0.041678,-0.024186,0.015373,0.111367,0.101350,0.126019,-0.001531,0.207223,0.109947,-0.112267,-0.184239
-0.279487,0.240618,0.115581,0.065527,-0.035189,0.011554,-0.028014,0.261615,0.044937,-0.175712,-0.147912,-0.267610,0.125580,0.051347,0.010864,-0.138802,-0.135384,-0.179557,0.152881,-0.053102,-0.089873,0.136455,0.077125,-0.066447,0.251566,0.176041,0.252309,0.087060,0.037715,-0.152849
-0.320288,0.167219,0.209565,0.016785,0.036102,-0.046697,0.059845,0.055478,-0.088399,-0.130887,-0.073061,-0.373878,0.249861,0.154378,0.101820,0.008265,-0.165038,-0.321396,-0.011093,0.094162,0.110353,0.020419,0.080816,-0.011679,0.176975,-0.003906,0.287813,0.248030,-0.126198,-0.192694
-0.171606,0.178700,0.186475,-0.122722,-0.124596,-0.175958,0.016444,0.020149,0.015670,0.059101,0.082051,-0.434737,0.210983,0.237655,0.162912,0.257475,-0.224803,-0.202756,-0.005228,0.077346,0.018531,-0.095588,0.224503,-0.045038,0.137426,-0.031340,0.187712,0.235757,0.011923,-0.065072
-0.115339,0.338564,0.275633,-0.113865,-0.152517,-0.115707,-0.066696,-0.013079,0.024829,-0.032588,0.267306,-0.390697,0.310908,0.461852,0.186019,0.264809,-0.118832,-0.233529,0.013686,-0.048031,-0.050487,-0.186480,0.368523,0.034007,0.132036,0.014238,0.421421,0.382743,-0.130349,-0.112506
-0.090019,0.437028,0.165168,-0.079222,-0.017472,-0.139403,-0.158797,0.183806,0.035302,0.011973,0.206723,-0.488388,0.151100,0.438910,0.206568,0.201155,-0.150209,-0.418144,0.076251,-0.085462,0.037937,-0.129532,0.336529,0.089245,0.043216,0.131306,0.534810,0.263585,-0.210908,-0.288724
-0.165010,0.299953,0.189885,0.069292,-0.112664,-0.145111,-0.077219,0.049206,-0.001311,0.049449,0.074038,-0.300643,0.267002,0.338956,0.264405,0.177813,-0.029136,-0.540027,0.097582,-0.042972,0.083531,-0.137084,0.160664,0.053057,0.066481,0.059576,0.253634,0.217394,-0.197834,-0.225272
-0.396477,0.309713,0.169664,0.078245,0.007771,-0.022747,0.171062,-0.105540,-0.145129,0.168343,-0.054914,-0.233462,0.202529,0.037005,0.196815,-0.164503,-0.030740,-0.427923,0.170293,-0.086500,0.087183,-0.038526,-0.035619,-0.141192,0.201141,-0.017428,0.017805,0.294168,-0.285916,-0.305131
-0.411831,0.268381,0.288162,0.011817,0.065211,-0.101732,0.189793,-0.007184,-0.252406,0.060342,0.070931,-0.133803,0.116929,0.200591,0.255263,-0.111003,0.002356,-0.413298,0.072073,-0.077094,0.045023,-0.076512,0.015460,0.078272,0.248505,-0.055267,0.211387,0.091074,-0.359675,-0.218316
-0.356014,0.486932,0.161383,-0.056807,0.115526,-0.045879,0.052526,0.028247,-0.215247,0.137143,-0.156269,-0.181864,0.174966,0.009268,0.199534,-0.171996,-0.065580,-0.565505,0.129304,-0.249439,0.000860,0.112522,-0.052164,0.005882,0.195103,0.035784,0.111944,0.252199,-0.224977,-0.265483
-0.346919,0.327242,0.233601,-0.014795,0.124109,-0.245189,0.055565,-0.070374,-0.122277,0.151695,-0.100348,-0.088518,0.220309,-0.087380,0.197483,-0.146167,-0.115241,-0.394104,0.014278,-0.249192,0.091002,0.363991,0.044851,-0.104233,0.166342,0.083392,0.008834,0.235739,-0.130903,-0.063721
-0.240736,0.119975,0.207498,-0.296850,0.046841,-0.155239,-0.063568,-0.059291,-0.168865,-0.005770,-0.025061,0.030840,0.317057,-0.071037,0.286901,0.004901,-0.023970,-0.199706,0.195447,-0.142131,-0.041080,0.269500,-0.062919,-0.092457,0.030880,0.004020,0.076028,0.164115,-0.106143,0.001279
-0.230025,0.138927,0.298008,-0.188925,0.095729,-0.234809,-0.044460,-0.015624,-0.120288,0.073664,-0.191469,0.047530,0.317313,-0.114065,0.046632,-0.111068,0.107376,-0.118629,0.163185,-0.001997,-0.049423,0.441251,0.011706,-0.099148,-0.025838,0.015867,0.051543,0.250911,0.011899,0.067370
-0.117595,0.252251,0.162546,-0.343076,0.132009,-0.122598,-0.086361,0.114886,-0.105411,0.058605,-0.117116,-0.168492,0.185746,-0.113617,0.227597,-0.132175,0.372945,-0.357145,0.183819,-0.252729,0.024130,0.497682,-0.071686,-0.084174,-0.069564,0.077026,0.123831,0.425132,0.096832,0.067195
-0.001520,0.162440,0.206544,-0.256527,0.168274,-0.117801,-0.047823,0.045329,-0.043915,-0.030278,-0.170675,-0.253556,0.432926,-0.078755,0.133970,-0.034947,0.579850,-0.368372,0.178302,-0.373325,0.154181,0.463369,0.044177,-0.037768,0.092540,-0.090629,-0.007083,0.251427,-0.053622,-0.093793
-0.123974,0.295098,0.200450,-0.309747,0.071688,-0.021555,-0.073383,0.085318,-0.012596,-0.091095,-0.136303,-0.240162,0.253594,0.123460,0.139296,-0.118686,0.346611,-0.467486,0.192792,-0.297153,0.069111,0.395197,0.260316,0.002525,0.006369,-0.039628,0.031982,0.023612,0.040208,-0.155240
-0.143078,0.161581,0.122982,-0.364371,-0.020078,-0.085304,0.069325,0.179523,-0.012601,-0.262023,-0.192212,-0.324452,0.243866,0.055081,0.047029,-0.244621,0.328657,-0.345289,0.279844,-0.355971,-0.006923,0.350993,0.174451,0.118588,0.067051,0.050855,0.182076,-0.076127,-0.051878,-0.220587
-0.135586,0.200384,0.069153,-0.192480,-0.090525,-0.152200,-0.015059,0.106523,0.041064,-0.030842,-0.241856,-0.236125,0.260871,0.145072,-0.116341,0.071942,0.109710,-0.262566,0.079668,-0.313773,-0.043461,0.311522,0.217644,-0.119135,0.096415,0.001149,0.133596,-0.022779,-0.114052,-0.056847
0.041024,0.256831,0.237577,0.104615,-0.023063,0.033666,0.028187,0.077604,0.109228,-0.182401,-0.023734,-0.091688,0.241624,0.163484,-0.029326,0.190385,-0.091561,-0.253956,-0.058587,-0.015963,-0.052206,-0.034051,0.062786,-0.113026,-0.023501,-0.035583,0.131783,0.003553,-0.044681,-0.195884
0.048183,-0.004032,0.194200,0.063036,-0.081821,-0.124956,-0.041290,-0.106617,0.116722,-0.052160,0.113601,0.074235,0.149349,0.053787,-0.042243,0.114431,-0.080961,-0.189591,-0.053701,0.009047,0.019080,-0.025364,0.105460,-0.087456,-0.065207,0.028598,0.004182,0.034720,0.075191,0.033137
0.015191,-0.083092,-0.005361,-0.067088,0.079342,0.015579,0.040432,0.074088,-0.027284,0.024679,0.042141,-0.084402,0.008994,-0.052591,-0.022722,-0.048975,-0.016954,-0.022784,-0.037452,0.048129,-0.000017,-0.064243,-0.013328,0.042713,-0.025782,-0.008172,-0.083799,0.077918,-0.032872,0.068477
0.050682,-0.079413,0.039874,-0.005995,0.069752,0.027052,-0.056219,0.055341,-0.016695,0.034260,0.032894,-0.015844,-0.046632,-0.066403,-0.067305,-0.051811,0.009499,-0.069711,-0.070561,0.056770,0.003438,-0.057359,-0.033098,0.065569,-0.068845,0.039362,-0.034261,0.017702,-0.018655,-0.041943
-0.015141,0.051636,0.036582,-0.084675,-0.076212,-0.007580,-0.045453,0.054967,-0.006039,0.045104,-0.050878,-0.052610,0.075337,-0.059399,0.081088,0.039618,-0.014331,-0.042562,0.067444,-0.063153,0.077004,0.037422,0.065613,0.033550,-0.073320,0.080544,0.021645,-0.035169,-0.056729,0.072735
0.081555,0.069593,0.010950,0.044638,-0.076389,-0.026057,0.023372,-0.070256,-0.037358,-0.040662,0.081251,-0.078120,0.039656,0.026180,0.084570,-0.004775,-0.083225,0.045408,-0.053183,-0.049764,0.039832,0.061158,0.062763,-0.042648,-0.029941,0.039340,0.000667,0.061947,0.075255,0.013300
-0.132511,0.164298,0.177552,0.011855,0.077119,0.080567,-0.026922,-0.169875,0.017063,0.196481,-0.119359,0.035052,0.041577,-0.079639,-0.107645,-0.194632,0.087541,0.146859,-0.077655,-0.107149,-0.014203,-0.120419,-0.050096,-0.158851,-0.005563,-0.006505,-0.140966,0.079324,-0.073794,-0.015824
-0.037542,0.159479,0.075538,0.152184,0.024990,-0.063982,-0.130847,0.203497,0.130557,0.071936,-0.168952,-0.143108,-0.065105,0.130456,-0.137730,-0.010692,0.214437,-0.180211,0.011215,0.112865,0.029606,0.010135,0.059981,-0.128989,0.155527,0.098382,0.179274,-0.106528,-0.031227,-0.092582
-0.015215,0.140608,0.009928,0.019183,0.058959,0.081164,-0.114551,0.024762,-0.026387,0.030631,-0.125801,-0.170066,0.053709,0.032906,-0.056197,-0.157860,0.087273,-0.188597,0.070817,-0.028247,0.075069,0.119025,-0.119801,-0.062596,0.083688,-0.078923,0.142295,0.129311,0.053795,-0.013030
0.116957,0.159234,-0.051681,-0.030292,0.071433,-0.096592,-0.205585,0.255635,-0.031838,0.111065,0.032278,-0.228522,-0.045365,0.013219,0.216936,0.152510,-0.037051,-0.189820,0.087894,-0.257590,-0.187770,-0.015013,0.108422,0.293887,-0.010327,0.114810,0.274096,0.017293,-0.201225,-0.014190
0.108673,0.287859,-0.041206,0.015743,0.056482,0.016228,-0.069842,0.105214,-0.160554,0.036943,-0.026956,-0.163620,0.032946,0.074925,0.120786,0.074256,0.066795,-0.205276,0.080613,-0.149249,-0.263594,-0.038951,0.139665,0.184516,-0.069048,0.146564,0.338122,0.133289,-0.058443,-0.037193
0.015132,-0.012151,-0.059414,-0.063711,-0.162344,-0.020528,-0.117726,0.164881,-0.001739,0.043025,0.043497,-0.194633,-0.078914,0.088546,0.097140,0.214334,-0.082834,-0.316421,-0.013281,-0.078987,-0.193757,-0.071440,0.120202,0.047818,-0.171621,0.203854,0.307685,0.190224,-0.042662,-0.001486
0.068238,0.027612,-0.157241,-0.283315,-0.126534,-0.204410,-0.198559,0.095157,0.201395,0.141537,-0.138156,-0.246692,0.023197,0.144453,0.079013,0.325024,-0.142154,-0.503113,-0.073972,0.047501,-0.145775,-0.268321,0.040116,-0.044423,0.032144,0.094965,0.287650,0.279377,0.100150,0.015919
-0.127576,0.177293,0.037575,-0.264894,-0.060610,0.007454,-0.109399,0.027122,-0.042732,0.297702,0.040466,-0.439554,0.269216,0.159127,-0.008733,0.162276,-0.071177,-0.399351,0.048081,0.115301,-0.171933,-0.284074,0.061351,-0.083737,0.091749,-0.138603,0.037769,0.431536,-0.059887,-0.016787
-0.051404,0.044125,0.068314,-0.252655,-0.117592,-0.133937,-0.070170,-0.059257,0.114321,0.242879,-0.053017,-0.427671,0.043928,0.097454,0.094736,0.396943,-0.056216,-0.272343,-0.051934,0.080136,-0.191431,-0.353446,0.079099,-0.169396,0.203427,-0.034334,0.005335,0.401965,-0.074109,0.026081
0.013223,0.214856,0.046673,-0.060504,-0.034076,-0.375838,-0.403537,0.151459,0.067794,0.156185,0.162617,-0.338402,0.047720,0.143970,0.081637,0.562249,-0.080713,-0.377928,0.053016,0.098419,-0.151959,-0.421964,0.153521,0.030895,0.071922,0.031313,0.049157,0.027275,0.079072,0.035764
-0.090290,0.244106,0.115700,0.121815,0.096813,-0.353617,-0.285164,-0.109813,0.214973,0.335505,-0.003449,-0.197496,0.156886,0.158724,0.002209,0.424633,-0.055847,-0.398861,0.001827,0.091412,-0.224834,-0.224034,-0.119584,-0.195413,0.095378,0.002268,0.111878,0.175528,-0.067437,0.103028
-0.247262,0.303999,0.065307,-0.035934,0.043136,-0.453781,-0.016824,0.069090,0.272794,0.206650,-0.108428,-0.323903,0.193875,0.287311,0.004657,0.242170,-0.099696,-0.409114,-0.164121,0.050677,-0.159614,-0.139841,-0.012476,-0.189901,0.260303,0.046570,0.172230,0.156562,-0.138771,0.007660
-0.005437,0.103088,-0.072401,-0.110943,0.075881,-0.462557,0.005286,0.198648,0.102632,0.103984,-0.097736,-0.208743,0.053406,0.156179,0.142795,0.223957,-0.108935,-0.588194,-0.014833,-0.032808,-0.139262,-0.158446,-0.068015,0.063019,0.185202,0.069550,0.172169,-0.039206,-0.286368,0.025853
0.035852,0.188907,-0.023750,-0.107311,0.086831,-0.423548,0.067463,0.132592,0.123013,0.222360,-0.074379,-0.286655,0.050641,0.009490,0.122885,0.166704,-0.142201,-0.362153,-0.016717,-0.007833,-0.048815,-0.023570,-0.074509,-0.052565,0.175217,0.022911,0.030407,0.076104,-0.288201,0.113672
0.048834,0.182254,0.043813,-0.179220,-0.039299,-0.392536,0.111119,0.070049,-0.004207,0.023562,-0.088590,-0.131314,0.030600,-0.064234,0.207545,0.122512,-0.202173,-0.278360,-0.030422,-0.059218,0.070342,0.089355,-0.085792,-0.019809,0.136976,0.060046,0.100060,-0.108182,-0.084391,0.102317
0.025613,0.143347,-0.005625,-0.091939,0.053426,-0.106054,0.091353,0.100482,0.186776,0.001654,-0.152791,-0.182413,0.000075,-0.229962,0.116400,0.114869,-0.138095,-0.219710,0.031125,-0.007562,0.022516,0.183719,-0.127819,0.047443,0.001265,0.071513,0.109684,-0.035849,-0.067885,0.213823
0.207315,0.072686,-0.040838,-0.183529,0.108654,-0.249752,-0.084024,0.129358,0.059428,-0.124008,-0.242790,-0.021090,0.202048,-0.290866,0.162223,0.211449,-0.004650,-0.152068,0.110345,-0.164587,0.108393,0.264316,-0.300148,0.013811,-0.039295,-0.194480,0.199564,0.079842,-0.274244,0.061913
-0.001883,0.083527,0.003132,-0.408423,0.131471,-0.304155,-0.066106,-0.018734,0.035875,-0.020633,-0.257134,-0.116851,0.008190,-0.406926,0.206867,0.142888,0.121547,-0.324785,0.114057,-0.258821,0.084861,0.327479,-0.082241,0.008799,0.083227,-0.060940,0.141546,-0.032244,-0.177617,0.121606
0.123787,-0.125270,-0.105584,-0.348063,0.112324,-0.133747,0.061634,0.075577,0.072514,0.107680,-0.253148,0.011202,-0.082671,-0.266020,-0.017500,0.191612,0.194216,-0.293878,-0.050099,-0.306966,0.118020,0.230406,0.066089,0.028320,0.045496,-0.066914,0.108191,-0.164269,0.062488,0.224083
0.106920,-0.130059,0.041312,-0.153192,0.076014,-0.122575,-0.058452,0.089131,-0.130176,-0.185094,0.034977,-0.023869,0.325279,-0.308710,0.257745,0.064251,0.219340,-0.281302,0.147112,-0.088629,0.047798,0.391106,-0.011926,0.004228,0.026675,-0.334312,0.112330,-0.097983,0.004798,0.073711
0.227907,-0.024263,0.166962,-0.123151,-0.041384,-0.012545,-0.286026,0.059770,-0.066539,-0.176570,0.151210,0.166673,0.483903,0.075172,0.171433,0.018637,0.327726,-0.035117,0.367462,-0.071893,-0.074240,0.303491,0.026409,0.141861,0.019715,-0.284117,0.019516,-0.130080,-0.142234,0.060778
0.062808,0.016645,0.053178,-0.338688,-0.111631,-0.064359,-0.120718,0.111008,-0.076389,-0.164842,-0.081886,-0.176445,0.274292,0.011462,0.109227,-0.276850,0.381645,-0.090881,0.315078,-0.049356,-0.141622,0.369109,-0.000973,0.068277,-0.110616,-0.197780,0.114373,0.035673,-0.223004,-0.103530
-0.025745,-0.017597,0.084029,-0.190843,0.100474,-0.063191,0.106939,-0.020481,0.025917,-0.114801,0.080150,-0.153468,0.264613,0.040671,0.219534,0.030222,-0.010125,0.018139,0.164934,-0.000034,-0.081998,0.286703,-0.089975,0.005797,0.074404,-0.292935,0.034742,-0.038265,0.036889,-0.107602
-0.012118,-0.064182,0.061972,-0.045718,-0.091454,-0.095131,0.108928,-0.072256,0.111817,-0.027319,-0.097444,-0.073018,0.141585,-0.020936,0.052168,0.339497,-0.070671,-0.097512,-0.099065,0.220385,-0.016093,0.135673,-0.024942,-0.096597,-0.024417,-0.048868,0.083283,-0.086002,-0.084893,0.087094
-0.091027,-0.019532,-0.125578,-0.021775,-0.044626,-0.069381,0.178076,-0.029663,-0.111368,-0.147819,0.054385,-0.198248,-0.051113,-0.048253,0.157514,0.194395,-0.111664,-0.183732,0.096458,-0.002656,-0.018107,0.117088,0.057335,0.100039,-0.013862,-0.228265,-0.002614,0.049120,0.095494,0.018283
0.035745,-0.029811,-0.063059,0.058768,-0.072752,-0.043983,-0.027699,-0.021466,0.014615,0.051657,-0.017754,0.042030,0.070601,0.060406,0.023474,0.056954,-0.057280,0.041501,0.008760,-0.058555,-0.066148,0.018541,-0.082016,-0.009227,-0.027008,-0.066767,-0.035269,-0.065073,0.084407,-0.025914
0.007159,-0.030060,0.055541,0.016804,0.042346,0.017236,-0.033713,-0.027807,-0.005306,0.045828,-0.003309,0.053704,-0.038290,0.049075,-0.038329,-0.083889,0.064257,-0.074758,0.034097,0.000212,0.008071,0.061400,-0.035589,0.010459,-0.011463,-0.060785,0.030723,-0.061528,-0.084104,0.073878
0.106074,0.079194,-0.095027,-0.060212,0.031389,-0.021451,0.039323,0.012979,-0.031232,0.098480,-0.048657,-0.071035,-0.105946,0.078844,-0.013543,0.009204,0.076396,0.095436,-0.063475,-0.043331,-0.012791,-0.003454,-0.079177,-0.001451,0.057155,0.049405,-0.058135,0.079103,0.017605,-0.010007
0.004374,0.091550,0.032733,0.087134,0.063543,0.089643,-0.063721,-0.058283,0.126075,0.163143,-0.048670,0.039276,-0.044976,0.100650,-0.002490,0.040818,-0.016515,0.068673,-0.030495,-0.054756,0.020081,-0.154562,-0.046112,-0.006974,-0.045720,0.147205,-0.070471,0.009353,0.017722,0.047275
0.124795,-0.189313,-0.211157,-0.030443,0.126507,-0.141832,0.004451,0.150082,0.171136,0.301740,-0.177943,-0.229548,-0.187263,-0.134386,-0.128212,0.141800,0.208456,0.148363,0.009372,-0.113769,0.207761,-0.066914,-0.159971,0.138796,0.180707,0.122128,0.008896,0.147156,0.247136,0.190328
0.098340,0.091717,-0.033937,-0.061376,0.084183,-0.131688,-0.024936,0.350504,-0.072200,-0.000851,-0.003494,-0.205557,-0.049126,0.089055,0.022319,-0.054949,-0.123469,-0.027638,0.066078,-0.230791,-0.003296,-0.150760,0.065096,0.055348,-0.136368,0.144093,0.107662,0.031894,0.027900,-0.184013
0.091397,0.088933,-0.090150,-0.067109,0.091345,-0.049056,-0.156471,0.110043,-0.089668,0.097368,-0.124326,-0.129136,-0.055133,-0.004001,0.108441,0.114445,-0.210166,-0.054094,0.044420,-0.222397,0.015707,-0.187823,0.106376,0.141397,-0.223486,0.123994,0.078148,0.102397,-0.160749,0.061342
0.137619,0.220255,0.014012,-0.132921,0.016935,-0.109227,-0.101848,0.135364,-0.105401,0.216523,0.002104,0.019124,-0.006149,0.065889,0.079242,0.128064,-0.094951,-0.137639,0.009326,0.091434,-0.310392,-0.244009,0.073537,-0.042350,-0.260834,-0.026665,0.332602,0.030839,-0.047931,0.021918
0.189395,0.029419,-0.139001,-0.224644,-0.033299,0.046112,-0.099680,0.219611,-0.018169,0.154435,0.149272,0.002655,-0.055934,0.083939,-0.025940,0.169345,-0.023469,-0.188386,0.045107,0.073278,-0.508124,-0.128825,-0.028621,-0.106715,-0.211174,0.034938,0.127574,0.172879,0.060421,0.022576
0.115725,0.237152,-0.063981,-0.387973,0.044349,0.166017,-0.176312,0.209645,0.055347,0.187540,0.010524,-0.146405,-0.004911,0.261814,-0.122957,0.246676,-0.243789,-0.093793,0.109120,0.012775,-0.405808,-0.264036,-0.027107,-0.096630,-0.031240,0.020308,0.103626,-0.003364,-0.033248,-0.073395
0.009294,0.239750,-0.016498,-0.490964,-0.014012,0.176726,-0.118514,0.162721,0.182432,0.281827,0.008728,-0.008693,0.035952,0.193513,-0.067786,0.196821,-0.284557,-0.124436,-0.039789,0.057674,-0.511405,-0.336993,-0.019005,-0.193857,0.113384,0.056969,-0.163732,0.044952,-0.056456,-0.015719
0.192020,0.202049,0.033699,-0.281992,0.049349,0.072164,-0.177734,-0.033995,0.187841,0.224269,0.016846,-0.071081,0.145809,0.088283,-0.019381,0.188951,-0.241689,-0.134461,-0.019929,0.091185,-0.340642,-0.196413,-0.140990,-0.134032,0.116369,-0.008385,0.018631,0.049262,-0.099623,0.067019
0.097034,0.050633,-0.008403,-0.165325,0.114254,-0.124525,-0.130125,-0.072727,0.289043,0.235101,0.142513,0.009226,0.193152,0.184149,-0.086073,0.389004,-0.119080,-0.072210,-0.035169,0.153745,-0.205093,-0.218319,-0.088560,-0.118320,0.334771,-0.032005,-0.067596,-0.030177,0.021017,0.170291
0.246228,0.117404,-0.065683,-0.112061,0.116011,-0.096276,-0.066816,-0.063422,0.239665,0.208531,0.062267,0.038349,0.149539,0.303326,0.044365,0.279363,-0.064496,-0.114950,-0.087861,0.166308,-0.267915,-0.139697,-0.044091,-0.066587,0.294406,-0.038208,-0.202822,-0.068979,-0.248468,0.048443
0.023150,0.098900,-0.053137,-0.202662,0.115772,0.144207,0.031473,0.034011,0.169827,0.248386,0.160953,-0.042326,0.068383,0.207606,0.013381,0.137099,0.013885,-0.104213,-0.092318,0.029589,-0.194166,-0.315853,-0.146810,0.046125,0.163732,0.100838,-0.284827,-0.063838,-0.318259,0.116317
0.027607,0.158644,-0.050424,-0.244948,0.099721,-0.071008,0.042265,0.065724,0.255049,0.290340,0.030445,-0.046204,0.155774,0.089608,0.011146,0.109538,-0.087331,-0.071590,-0.110498,0.090599,-0.166270,-0.080034,-0.128363,-0.102299,0.281947,-0.046823,-0.248831,0.119717,-0.241699,0.054151
0.084844,0.034924,-0.165793,-0.034182,0.157779,-0.074691,0.025015,0.129744,0.195919,0.189683,-0.116509,-0.092101,0.032648,0.056491,-0.071461,0.144833,0.071420,-0.186533,-0.029525,0.167247,-0.268464,-0.016585,-0.059838,-0.029158,0.153087,0.020244,-0.244126,0.109005,-0.157679,0.216918
0.108330,0.147454,0.030211,-0.105654,-0.005041,-0.059136,-0.003210,0.066548,0.225921,0.251689,-0.085702,-0.052298,0.058426,-0.045672,-0.004002,0.096765,-0.051938,0.001562,0.093404,0.093659,-0.121614,0.121127,-0.171594,-0.078470,0.201075,0.026400,-0.207296,0.033753,-0.317351,0.057459
0.189535,0.095218,0.088246,-0.102966,-0.043120,-0.094698,-0.168488,0.037642,0.038477,0.125762,-0.041553,0.018592,-0.001799,-0.152695,0.132478,0.075634,-0.025462,-0.168533,0.074867,0.177230,-0.227412,0.111364,-0.018247,-0.027059,0.096840,0.103694,-0.101798,0.028264,-0.058780,0.078981
0.218341,0.093467,0.246273,-0.427422,-0.006739,-0.146720,-0.079091,-0.073109,0.034072,0.155678,0.029845,-0.002497,-0.023548,-0.362379,0.008291,0.137673,-0.021046,-0.115601,-0.047335,0.009643,-0.016425,0.222535,0.022835,-0.106053,0.138382,0.037316,-0.083018,0.054477,-0.052407,0.114639
0.113993,0.114350,0.151306,-0.520788,-0.107919,-0.134257,-0.115837,0.039359,-0.007741,0.131136,-0.108464,0.048536,-0.038320,-0.272516,0.080885,0.083667,0.019429,-0.034351,0.060898,-0.136408,0.060075,0.148032,0.041241,-0.159345,0.004923,-0.151330,-0.003331,-0.268716,-0.165617,0.126085
0.036028,0.077319,0.151625,-0.467874,-0.067550,-0.101992,-0.009636,0.033120,0.007693,0.081132,-0.023720,-0.047818,0.030086,-0.287534,0.016945,0.022433,0.017108,-0.070357,0.184555,-0.158632,-0.013340,0.015306,0.046297,-0.000063,-0.082903,-0.001827,0.003631,-0.455357,-0.192906,0.088719
-0.030303,-0.084860,-0.025959,-0.499644,0.135199,-0.060143,-0.036572,0.098808,-0.137248,0.049588,-0.066502,0.037547,0.082722,-0.381162,0.159626,-0.077962,0.206811,0.048934,0.192375,-0.175520,0.121259,0.198237,-0.059624,0.127110,-0.092220,-0.029259,-0.140347,-0.184203,-0.044227,0.156328
0.158871,-0.104850,-0.072236,-0.494306,0.200455,-0.026280,-0.125056,0.072911,-0.082304,0.000902,0.135539,0.080229,-0.099029,-0.251484,0.177182,0.012813,0.168460,-0.012485,0.217908,-0.188006,0.247190,0.148178,-0.005136,0.132614,0.008339,0.170057,-0.071593,-0.354080,0.043365,0.133657
-0.004950,-0.015940,0.090329,-0.275226,0.078505,0.062006,0.074853,-0.023722,-0.172158,-0.201970,0.194245,0.047176,0.163023,-0.289564,0.118291,-0.076111,0.438783,-0.167755,0.367108,-0.057225,0.141207,0.275467,-0.002452,0.027670,-0.215707,-0.208657,-0.133720,-0.327944,-0.031985,0.146254
0.317012,-0.331039,-0.114333,-0.271300,0.169738,-0.236109,-0.190905,-0.122608,-0.034475,-0.216282,0.131302,0.305802,0.190829,-0.240163,0.167163,0.024348,0.209175,0.049736,0.229536,0.075156,0.021099,0.229441,-0.099404,0.053292,0.033569,-0.468885,-0.101668,-0.114313,0.010972,0.287053
0.285396,-0.364029,0.039948,-0.010701,0.230460,-0.207075,-0.094647,-0.021417,0.048232,-0.142871,0.056990,0.261470,0.310123,-0.074703,0.075583,0.216077,0.099234,-0.008292,0.069955,0.313378,-0.158435,0.102720,-0.177236,0.043100,0.077985,-0.260478,-0.038581,-0.129696,0.245578,0.106332
0.366004,0.012275,0.019285,-0.029292,0.098548,-0.138157,0.297954,0.212374,0.150969,-0.130571,-0.026076,0.106183,0.145031,0.216789,-0.068304,-0.057359,0.159667,-0.015559,0.281672,0.165332,-0.071553,0.007536,-0.183853,0.164222,0.041138,-0.199829,0.036040,-0.181080,0.163271,-0.121964
0.072480,0.076591,-0.059520,-0.069321,-0.010148,-0.104603,0.033492,0.104647,-0.117084,-0.225617,0.024947,-0.104618,-0.021123,0.135770,0.132365,0.075818,0.040200,-0.185760,0.069331,-0.000006,-0.081288,0.139006,0.026115,0.029168,-0.012840,0.016650,0.034015,-0.027917,-0.003053,-0.161965
0.004714,-0.042884,-0.048605,-0.002042,0.038530,-0.024064,-0.036754,-0.010030,-0.066750,0.062645,0.079647,-0.033551,-0.044051,-0.016209,0.020901,-0.029995,-0.056958,-0.018182,0.060874,0.034686,0.011713,-0.010505,-0.077542,0.080919,-0.018284,0.063245,0.005865,-0.045281,0.033913,-0.037139
-0.028012,-0.034384,-0.029632,-0.050147,-0.007245,-0.037467,0.074219,-0.041512,0.005808,-0.041168,-0.016572,-0.037753,0.073635,-0.054833,-0.021586,0.035746,0.085455,-0.036794,0.016836,0.013762,0.075501,-0.026910,-0.009086,-0.025763,0.058626,-0.080717,0.026085,-0.008044,-0.020362,0.032422
0.111167,0.181717,0.123439,-0.033278,0.035535,0.139818,0.078967,0.083857,0.010545,0.111047,-0.054502,-0.266915,0.112863,-0.006735,0.013476,-0.084734,0.061327,0.137090,-0.044448,-0.206091,-0.155875,-0.086477,-0.046933,-0.108352,-0.210962,-0.083272,-0.027447,-0.011254,-0.095193,-0.329916
0.055343,0.029477,-0.156268,-0.055290,0.128494,0.166852,-0.173640,-0.012734,0.055778,0.332644,-0.113869,-0.053266,-0.164298,-0.087742,-0.052059,0.041810,0.062429,0.200934,-0.277649,-0.101296,-0.032427,-0.024720,-0.194178,-0.076372,-0.211321,0.102976,0.076478,-0.010897,0.103415,0.159253
0.169622,0.216172,0.014369,-0.031394,0.085071,0.053267,-0.089195,0.353668,0.109332,0.085414,-0.107780,-0.101837,-0.204321,0.225689,-0.029359,0.217061,-0.180516,-0.096710,-0.017126,-0.203989,-0.069546,-0.229685,0.028429,0.132759,-0.264799,0.211584,0.338437,0.160011,0.032237,-0.122863
0.041607,0.060430,-0.190920,-0.177899,0.020263,-0.021063,0.011800,0.045776,0.008492,0.221503,-0.148096,0.089761,-0.082442,0.016346,0.055217,-0.122821,-0.036805,0.090997,-0.241617,-0.149899,0.175280,-0.293083,-0.024239,0.122484,-0.293745,0.085321,0.029368,0.003166,0.049155,0.133946
-0.017503,0.054474,-0.123171,-0.279944,0.083198,-0.056250,0.043190,0.132153,0.009688,0.157014,0.055126,0.065103,-0.046967,-0.006008,-0.030872,-0.026636,-0.090463,0.051967,-0.206824,-0.176348,0.068487,-0.365694,0.077801,0.102267,-0.261258,0.040478,0.136722,0.007963,0.075529,0.031224
0.033924,0.040074,-0.118626,-0.383394,-0.029582,-0.008863,-0.068575,0.048956,0.109396,0.134435,-0.039047,0.061221,-0.036946,0.050346,0.018656,0.025740,0.023346,-0.019595,0.081226,-0.006337,0.013983,-0.271809,-0.011675,0.095302,-0.247458,0.013668,0.053881,0.170530,0.058072,-0.014891
-0.028057,0.079665,-0.131686,-0.580999,-0.112001,-0.096247,0.009487,0.075065,0.096523,-0.056219,0.064001,0.170675,0.010881,0.109159,0.082690,-0.055724,-0.239480,-0.138820,-0.033078,-0.192806,0.059789,-0.228049,0.101772,0.204013,-0.011446,0.065276,0.128069,0.104952,-0.079116,-0.029698
-0.039756,-0.050277,0.004733,-0.333988,-0.050968,-0.075944,-0.000249,0.031420,0.094399,0.145797,0.040053,0.184070,0.137893,-0.033111,0.101160,0.067353,-0.111575,0.011682,-0.077274,-0.179104,0.100688,-0.186033,0.061290,0.161599,0.205884,-0.056390,0.006654,0.045433,-0.082971,0.023681
0.112151,-0.055709,0.083598,-0.299246,0.008478,-0.143757,-0.031809,-0.053321,0.067238,0.173948,0.183550,0.092347,0.035858,-0.045838,0.084840,0.133402,-0.189965,-0.068431,-0.148633,-0.034652,-0.044714,-0.022660,-0.010791,0.055218,0.309215,-0.025888,0.155201,-0.010224,-0.010811,-0.127650
0.126413,-0.167846,0.075327,-0.297336,-0.035994,-0.290743,0.014217,-0.065952,0.186370,0.150961,0.246013,0.088978,0.174791,-0.026622,-0.098206,0.084113,0.020220,-0.087119,-0.106354,0.162204,-0.156614,-0.176590,-0.110087,0.091325,0.239863,-0.047939,-0.000250,-0.131529,-0.013450,-0.057472
0.223041,-0.046310,-0.005450,-0.312893,0.105325,-0.197016,0.129688,-0.132359,0.069156,0.022363,0.161006,0.041605,0.202424,0.072478,-0.056426,0.124840,0.021945,0.035895,-0.091459,0.063069,-0.100945,-0.181820,-0.125216,0.180074,0.160448,-0.001312,-0.011979,-0.100095,-0.124942,-0.140441
0.120943,-0.115704,-0.087313,-0.240786,0.164363,-0.221529,0.158227,-0.001821,0.110670,0.064912,0.059541,-0.026304,0.111817,0.138673,-0.153222,0.062134,0.012560,-0.104414,-0.186817,0.255150,0.024798,-0.072435,-0.181709,0.043191,0.197695,0.114515,-0.228338,-0.029020,-0.026419,-0.100478
0.042471,-0.011066,-0.009634,-0.162646,0.016720,-0.096226,0.070441,0.145458,0.163244,0.051977,0.025672,-0.014327,0.072946,0.201140,-0.038900,0.059166,0.006404,-0.139991,-0.008843,0.209566,0.113976,-0.045277,-0.142215,0.104715,0.106745,0.074906,-0.476816,0.069121,-0.136015,-0.079463
0.075829,0.051599,-0.041850,-0.410541,0.089150,0.105298,0.139397,0.090079,0.124105,0.152681,0.055585,-0.147591,0.100582,0.228639,-0.082644,0.148518,0.007707,-0.091463,-0.165821,0.165156,0.020485,-0.016308,-0.053818,-0.043428,0.081572,0.040219,-0.420256,0.025847,-0.246429,0.002926
0.050825,0.048491,0.052563,-0.213269,0.014102,-0.172609,0.053288,0.105633,0.130446,0.277479,0.107011,0.051367,0.135577,0.031444,0.007629,0.182218,-0.128692,-0.034700,-0.153525,0.116214,0.007676,0.015218,-0.115773,0.056155,-0.048395,0.114004,-0.392818,0.074031,-0.249267,-0.030456
0.124713,0.003750,0.005450,-0.363384,0.144448,-0.236067,-0.036318,-0.007763,0.107329,0.037602,0.140992,0.023296,0.109214,0.023167,0.044298,0.217072,0.087552,-0.119190,-0.033196,0.098635,-0.092790,0.199713,-0.088608,0.005662,0.121624,-0.050518,-0.245628,-0.014464,-0.196152,0.001314
0.123031,-0.031105,0.088644,-0.577667,-0.030754,-0.152455,-0.129742,-0.116539,0.031671,0.072720,0.131561,-0.080666,0.102032,-0.066827,0.074792,0.161106,-0.026242,-0.084728,-0.052445,0.107059,-0.092460,0.153065,-0.004873,-0.093652,0.024985,0.030027,-0.243496,-0.392785,-0.115271,0.010311
0.137179,0.084262,0.069218,-0.460662,-0.004550,-0.258175,-0.108606,0.031529,-0.036632,0.035283,0.061366,-0.071831,0.020861,-0.153691,-0.004060,0.201765,-0.001705,0.018476,-0.009530,0.155046,-0.090563,0.185610,-0.001212,0.018916,-0.155891,0.141007,-0.068901,-0.501773,-0.221055,-0.122794
0.082457,0.037335,0.079385,-0.291532,-0.038132,-0.112788,-0.056081,-0.032598,0.074769,-0.050592,0.083575,0.041042,0.097462,-0.223435,-0.085588,0.153395,0.042302,-0.024050,0.019291,0.099750,-0.091665,0.224034,-0.112559,-0.156820,-0.158724,-0.016419,-0.207070,-0.486451,-0.071022,-0.061511
-0.070092,-0.003193,0.186360,-0.455884,-0.033642,-0.017991,-0.047239,-0.053478,0.049795,0.155644,-0.035378,0.066935,0.077420,-0.180299,-0.015398,-0.013421,0.035330,0.023978,-0.011106,0.034811,-0.201815,0.137292,-0.089337,-0.162317,0.056042,-0.058559,-0.169967,-0.521710,-0.151223,0.094004
-0.006583,0.044406,0.198171,-0.307811,0.182402,0.105737,0.067874,0.001484,-0.055414,0.157053,-0.059205,0.026689,0.086765,-0.230879,0.138558,-0.002656,-0.059188,-0.038048,0.088221,0.026321,-0.090475,0.223450,-0.132248,-0.185207,0.178938,-0.076666,-0.182020,-0.384874,0.038482,0.213567
0.152778,0.082903,0.182453,-0.297648,0.205311,0.217044,0.164136,-0.078719,-0.241407,-0.045380,0.081793,0.055334,-0.021070,-0.193796,0.184280,-0.016766,0.151062,-0.215174,0.265148,-0.247374,-0.181318,0.144908,-0.084304,-0.066927,0.010474,-0.074103,-0.050147,-0.573295,0.005920,0.212906
0.202717,-0.140903,0.021362,-0.223819,0.155573,0.146394,0.010045,-0.086283,-0.132132,-0.153434,0.100894,0.013280,0.151714,-0.081895,0.169967,0.002109,0.261420,-0.148368,0.484984,-0.118378,-0.150625,0.226511,-0.215917,0.039211,0.065006,-0.256936,-0.167552,-0.253761,0.071052,0.152289
0.440414,-0.192093,-0.060420,-0.184874,0.497121,-0.191641,0.304476,0.005907,0.010623,-0.254340,0.263914,0.182003,0.327308,0.201647,-0.041458,0.254407,0.067590,-0.107381,0.236372,0.263253,-0.245303,0.090414,-0.247724,0.048534,-0.047886,-0.189906,-0.098992,-0.104580,0.388205,0.209996
0.239214,0.016662,-0.037142,-0.071607,0.312982,-0.200632,0.155956,0.079714,0.012986,-0.090242,-0.010067,0.001913,0.200589,0.144159,0.050964,0.119697,0.328404,-0.047882,0.146401,-0.004308,-0.217380,0.287246,-0.344825,-0.010208,0.276935,-0.219398,0.008229,0.025892,0.126718,-0.051104
0.103066,0.137326,-0.184563,-0.170300,-0.002817,-0.054867,0.068616,0.162131,-0.075126,-0.076539,0.087463,-0.002175,0.009335,0.100304,0.046265,-0.031162,0.196431,-0.108638,0.212228,-0.210952,0.084208,0.121904,-0.148717,0.087868,0.023208,-0.044926,-0.098978,0.018363,0.015525,-0.169171
0.082774,0.001651,-0.002046,0.039106,0.069799,-0.036073,0.023437,-0.072497,0.019889,-0.003093,-0.077491,0.027103,0.074430,-0.061197,0.044330,0.033487,-0.079932,-0.023288,-0.027423,0.046899,-0.046580,0.024014,0.055916,0.074032,0.058193,-0.011235,0.056111,-0.075059,-0.038620,0.012286
0.138257,0.044305,0.078637,-0.022492,0.067737,-0.155597,-0.061858,0.143247,0.142651,0.140588,-0.160731,-0.067130,-0.169032,-0.115564,0.065559,0.065824,-0.078979,-0.034798,-0.001050,-0.189368,0.176618,-0.084498,-0.052919,-0.069936,-0.081031,-0.003611,-0.071759,-0.000597,-0.026384,0.089182
-0.031042,-0.172919,0.014515,0.025142,0.152948,-0.133506,0.081350,-0.191610,0.047443,0.013152,0.127127,-0.037508,0.012061,-0.020494,0.105984,0.039796,0.027238,0.027014,0.072371,0.050392,0.206687,-0.011997,0.116877,0.047619,0.016796,-0.082298,0.204571,0.354898,0.202029,0.197963
-0.087840,0.090949,0.008697,-0.035957,0.137044,0.088626,0.179059,0.213181,0.080612,0.153163,-0.179334,0.001523,-0.124492,0.164929,-0.108336,0.018820,0.013252,0.076631,-0.327822,-0.242383,0.076858,-0.341907,0.047368,0.112411,-0.259211,0.201787,0.262577,0.159273,0.063143,0.137316
-0.028412,0.067166,-0.071497,-0.113844,0.143105,-0.029417,0.143462,0.235572,0.082657,0.106613,-0.044567,0.046177,-0.167877,0.016297,-0.064572,0.096921,0.128507,-0.037277,-0.042663,-0.249801,-0.062385,-0.238725,0.052332,0.124161,-0.142395,0.132471,0.213289,0.312391,0.074896,0.156161
0.018123,-0.028178,-0.151115,-0.138784,-0.031680,-0.157722,0.190488,0.159207,0.008138,0.135439,-0.098205,0.232702,-0.211622,0.024810,0.213267,-0.029153,0.165562,0.001272,-0.033773,-0.360292,0.081755,-0.172635,0.191090,0.059365,-0.203894,0.084674,-0.100413,0.251543,0.121744,0.216299
0.007705,-0.014826,-0.173185,-0.092797,-0.026195,-0.104124,0.204332,0.036179,0.170594,0.152883,-0.017879,0.109889,-0.063614,-0.038978,0.003290,-0.008240,0.081148,0.032114,-0.051066,-0.190258,-0.010793,-0.294858,0.103653,0.115499,-0.236449,0.104998,0.052119,0.120384,0.180932,0.189146
-0.071437,-0.052285,-0.050149,-0.326219,-0.046549,-0.259403,0.119565,0.035752,0.027435,0.015682,-0.007306,0.110024,-0.010113,0.014977,-0.091486,-0.005925,0.011482,-0.007598,-0.106249,-0.260899,0.016175,-0.107016,0.044631,0.004512,0.064687,-0.017306,0.123430,0.111009,0.012943,0.003791
0.006039,-0.239032,-0.058000,-0.310193,-0.034098,-0.221546,0.042514,-0.075485,0.076265,-0.087490,0.079811,0.259065,-0.040699,-0.046513,-0.050169,-0.063621,-0.193724,-0.055921,-0.045919,-0.230660,-0.011604,-0.088516,0.182300,0.204987,0.149482,0.027504,0.098240,0.193834,0.102105,0.128829
0.188726,-0.085103,-0.031837,-0.180247,0.034239,-0.304673,0.012070,-0.162543,0.145577,0.034953,0.150033,0.343118,0.163591,-0.075040,-0.039755,0.089806,-0.263912,0.135608,-0.134884,-0.170501,0.157935,-0.103219,0.020585,0.054757,0.122013,-0.065866,0.106677,0.115699,0.119333,0.012424
0.111489,-0.013383,0.051447,-0.163359,0.001909,-0.200405,0.094105,-0.122269,0.182195,0.212513,-0.006629,0.120195,0.128059,-0.028411,-0.145879,0.037636,-0.104341,0.079764,-0.071929,-0.065678,0.297893,-0.203262,-0.107486,0.070494,0.187395,0.043842,0.071475,-0.003178,0.143832,-0.152188
0.047796,-0.142421,-0.019387,-0.089321,0.113943,-0.079599,0.172469,-0.075937,0.046805,0.046156,0.045992,-0.046396,0.090461,0.048701,-0.142542,0.011055,-0.058637,0.026129,-0.128714,0.036710,0.190619,-0.107983,-0.110245,0.043560,0.292605,-0.116202,0.061718,0.055197,0.166710,-0.065727
0.071866,-0.244681,0.053094,-0.213638,-0.016550,-0.275468,0.060529,0.070365,0.094634,0.107313,0.085805,0.088669,0.208859,0.013689,-0.007802,-0.117171,0.011881,0.115261,-0.023942,0.031727,0.188742,-0.053038,-0.069619,0.096897,0.355026,-0.057269,0.017345,0.047242,0.103686,-0.019756
0.124852,-0.154116,0.042873,-0.322939,0.132228,-0.094366,0.028674,0.089543,0.025374,0.109158,-0.029107,-0.082032,0.110961,0.137424,-0.135511,0.032870,-0.029551,0.033024,-0.178995,0.249993,0.211859,0.030119,-0.022769,0.105120,0.177348,0.000226,0.076180,-0.029048,0.246878,-0.111434
-0.027681,-0.169378,-0.014459,-0.285259,0.109839,-0.076406,0.049708,0.065560,-0.051243,0.158678,-0.047695,-0.156360,0.231244,0.168048,-0.198335,0.156529,0.084631,-0.080168,-0.048459,0.272919,0.296446,0.074975,-0.090355,0.064838,0.122176,0.050127,-0.035774,-0.107280,0.110427,-0.113916
0.113893,0.018618,-0.154234,-0.306487,0.025647,-0.106078,0.074944,0.056395,-0.020043,0.023795,-0.020992,-0.107766,0.158762,0.332162,-0.119563,0.081221,0.089556,0.013312,-0.056169,0.220628,0.321830,0.196965,0.024658,-0.010778,0.018171,0.070196,-0.059253,-0.037362,0.108371,-0.114967
0.127773,0.065080,-0.197244,-0.444421,0.072926,-0.118172,0.091750,-0.044208,0.081730,0.132485,-0.044648,-0.105252,0.172493,0.307182,-0.228673,0.198438,-0.009932,-0.007706,-0.245261,0.294497,0.257035,0.113430,0.018693,0.098114,0.120961,0.054291,-0.128211,-0.015617,0.070820,-0.194976
-0.019925,-0.077405,-0.174543,-0.306706,0.006777,-0.136195,-0.088368,-0.083341,0.080062,-0.043867,-0.024598,-0.204572,0.160950,0.175623,-0.141549,0.047660,0.132091,0.058239,-0.085801,0.235650,0.283732,0.308769,0.069157,0.069096,-0.057855,0.014265,-0.199161,-0.181145,-0.008648,-0.072097
-0.096787,-0.089436,-0.034131,-0.292160,0.157137,-0.087997,0.005442,-0.307170,0.084765,0.136851,-0.016769,-0.144794,0.028266,0.149334,-0.146370,0.062952,0.085198,0.030183,-0.281657,0.223286,0.179441,0.254392,0.012207,-0.007063,-0.180116,0.031916,-0.262854,-0.333981,0.057518,-0.025597
0.000983,-0.062984,-0.064295,-0.157052,0.133068,-0.291962,-0.002710,-0.217773,-0.026576,-0.084131,-0.086952,0.016063,0.123371,-0.071737,-0.041481,-0.028459,0.133581,0.111110,0.022329,0.116048,0.086282,0.328250,-0.012658,0.057646,-0.098830,0.011205,-0.430706,-0.353548,0.011619,0.104353
0.030066,-0.084546,0.037602,-0.278153,0.165177,-0.114364,0.027295,-0.175003,0.035628,0.068295,-0.147221,-0.005481,-0.059064,-0.159562,-0.175704,-0.013925,0.141002,0.079642,-0.126917,0.027149,0.058306,0.250053,-0.106866,0.114732,-0.251650,0.096361,-0.474825,-0.265426,0.055405,0.057966
-0.160454,-0.108149,0.040742,-0.068351,0.031276,0.017092,0.106740,0.008828,0.069574,-0.003034,0.015399,-0.083007,-0.057216,-0.092257,-0.145739,0.010969,0.017389,-0.004067,-0.119401,0.105864,-0.093778,0.144920,-0.049163,0.116614,-0.101469,0.046950,-0.378188,-0.261422,0.117466,0.221218
-0.000495,-0.041070,0.020907,0.027766,-0.052997,0.199583,0.107967,0.051028,0.095915,-0.030442,0.043797,-0.044293,-0.004493,-0.206751,0.059582,0.031206,-0.042063,-0.115070,-0.041813,-0.000581,0.060157,0.074979,-0.024623,0.047017,-0.088860,0.094710,-0.362284,-0.358423,0.030221,0.192690
0.065573,-0.142230,0.145916,-0.036185,0.078379,0.172471,0.053378,0.036036,-0.063627,-0.036552,0.115416,0.058467,0.069023,-0.218784,0.155310,-0.009734,0.080190,-0.028432,0.250342,-0.097420,-0.095180,0.115763,-0.246499,-0.080047,-0.052638,-0.053291,-0.367945,-0.335269,-0.090284,0.237853
0.088957,-0.036380,0.140416,-0.072053,0.200947,0.136515,0.175862,-0.046235,-0.208502,0.034344,0.070828,0.099021,0.326968,-0.257990,0.139380,0.127571,0.187931,-0.232625,0.318909,-0.253854,-0.120872,0.285664,-0.270698,-0.095973,-0.084496,-0.036250,-0.145661,-0.314698,0.207611,0.240166
0.411009,-0.101035,0.028913,0.021589,0.523122,-0.072154,0.318765,-0.035474,-0.097933,-0.269029,-0.002690,0.179400,0.383470,0.098767,0.123836,0.077330,0.226266,-0.154543,0.369637,0.046890,-0.250811,0.371864,-0.279658,-0.019244,0.157836,-0.188855,-0.144430,-0.136729,0.211942,0.157260
0.401484,-0.226019,0.200909,0.118992,0.270950,0.145953,0.152926,-0.139431,-0.147354,-0.085495,0.021105,0.161906,0.131673,0.027795,0.199785,0.181146,0.145325,-0.119775,0.165175,-0.151127,-0.158283,0.104353,-0.188904,-0.159697,0.204751,-0.321838,-0.072375,-0.014948,0.075649,0.181598
0.007171,0.052590,0.093442,-0.080759,0.170488,0.138294,-0.010469,0.016542,-0.106323,-0.044537,0.100739,-0.125672,0.122446,0.068193,0.104849,-0.034642,-0.036311,-0.029633,0.162454,-0.132902,0.020127,0.101341,-0.050599,0.082100,0.031147,-0.233830,-0.093983,0.177821,0.058550,-0.012540
-0.038916,0.014912,-0.081389,-0.036944,-0.015304,0.025942,-0.054334,0.046156,-0.035174,-0.067717,0.071271,0.075553,0.078292,-0.023803,0.031138,-0.104524,-0.065305,0.006290,-0.029357,0.051456,0.000494,-0.060165,0.016351,-0.011729,-0.077092,-0.070294,-0.009115,0.071817,-0.039900,0.085109
0.151827,0.305034,-0.011444,-0.205058,0.147703,-0.122544,-0.004109,0.286779,0.278740,0.255246,-0.171419,0.111918,-0.255381,-0.023642,0.059681,0.179435,-0.235464,-0.148240,-0.212663,-0.231974,0.229845,-0.110836,-0.291132,-0.144955,0.086629,-0.008641,-0.034723,0.060719,0.005944,0.178309
-0.226202,-0.086510,0.069227,-0.013235,0.065064,-0.178397,0.182926,-0.123719,-0.185115,-0.017284,0.138432,0.005378,0.164690,0.007634,0.083045,-0.109910,-0.078077,-0.099811,-0.091946,0.089129,0.141192,0.034922,-0.013521,0.233162,0.024814,-0.178547,0.192230,0.421334,0.238501,0.181799
-0.002231,-0.114496,-0.004652,0.011719,-0.116084,-0.175057,0.270363,0.208815,0.034096,0.039728,-0.035416,0.104854,-0.062980,0.090985,-0.177117,-0.046918,-0.085661,0.094081,-0.310841,-0.185134,0.047268,-0.394773,-0.098557,0.341912,-0.222747,0.113267,0.060360,0.194548,0.004696,0.121225
0.141356,0.005090,-0.096310,-0.200160,-0.061967,-0.145940,0.116314,0.342945,0.229648,0.215387,-0.021772,0.144203,-0.032563,0.108586,-0.040828,0.128796,-0.070455,-0.006289,0.004020,-0.246255,-0.202757,-0.407972,-0.041054,0.145044,-0.305810,0.110133,0.084445,0.095014,-0.017661,-0.105976
0.166251,-0.095027,-0.149069,-0.272214,-0.003351,-0.107831,0.141682,0.195524,0.122302,0.144030,0.016189,0.328671,-0.115879,-0.002783,0.180813,0.010183,-0.155389,-0.107481,0.086227,-0.214392,-0.112754,-0.223276,0.080811,0.078231,0.011642,0.117947,-0.059905,0.181425,-0.011361,0.064526
-0.061533,-0.225522,-0.063978,-0.314562,-0.125964,-0.248616,0.205265,0.073718,0.224796,0.011676,0.060955,0.285883,-0.051113,0.068570,-0.016618,0.029807,-0.088871,-0.075701,-0.129535,-0.138183,0.042158,-0.273897,0.121953,0.031433,0.023464,-0.048531,0.039659,0.120682,0.103964,0.079627
-0.088110,0.056989,0.022331,-0.330442,-0.057120,-0.218098,0.310068,-0.041343,0.190656,0.012321,-0.012406,0.187749,-0.019810,-0.035515,0.023755,0.011986,-0.187198,-0.142285,0.009946,-0.378334,0.097066,-0.106096,0.014194,-0.012004,-0.041380,-0.124560,0.023815,0.152194,0.116155,0.071039
0.110172,-0.147487,0.004922,-0.276923,0.035638,-0.235742,0.075107,-0.134947,0.116610,-0.008829,0.045319,0.248564,0.176086,-0.056818,0.065471,0.047556,-0.339000,0.034259,0.088778,-0.121300,0.081070,-0.114321,0.073990,-0.023319,0.220911,-0.056762,0.008734,-0.047396,0.134577,0.033583
0.015453,-0.090283,-0.066466,-0.190102,-0.028425,-0.099270,0.091238,0.020017,0.156528,-0.066497,0.086446,0.160781,0.049892,-0.038205,-0.108317,-0.033222,-0.216717,0.160567,-0.014995,-0.184327,0.254181,-0.011015,-0.005445,0.148763,0.225357,0.014208,0.031934,-0.039422,0.175983,0.027096
-0.061807,0.102377,-0.007639,-0.130996,-0.010408,-0.194416,0.146303,-0.005261,0.088212,-0.052226,0.071641,0.041973,0.097263,-0.106991,-0.066507,-0.106579,-0.014441,0.188968,0.114442,0.008763,0.234939,-0.040845,-0.136459,0.040647,0.303586,-0.064935,0.030120,0.086466,0.238716,0.101211
-0.092960,-0.065597,0.085555,-0.202129,0.081957,-0.169907,0.056822,0.042751,-0.048615,0.026857,0.245251,0.037125,0.110754,-0.090490,-0.040271,-0.006432,0.043579,-0.017900,-0.027676,0.013584,0.184880,0.013434,-0.049147,0.050178,0.289735,0.066035,0.090789,-0.044078,0.143944,0.038961
0.015989,-0.062159,0.077261,-0.214026,0.044975,-0.102870,0.266107,0.025257,-0.044297,-0.037623,-0.023221,-0.085346,0.195773,-0.027379,-0.110076,0.043155,0.017290,0.082605,0.060810,0.117112,0.408063,0.089254,-0.118827,0.085071,0.209887,0.065501,0.144733,-0.092079,0.270820,-0.048842
0.047896,-0.112694,0.026599,-0.140493,-0.007443,-0.076311,0.166904,0.112461,-0.125907,-0.009305,0.039412,-0.049602,0.141394,0.081991,-0.139831,0.107333,-0.006750,0.120778,-0.036443,0.058568,0.382815,0.041834,0.051892,0.128156,0.110915,0.149313,0.211383,-0.140389,0.247811,0.014837
0.096808,-0.041402,0.048459,-0.169532,0.091957,0.047343,0.099578,0.002164,-0.146540,0.114324,-0.068605,-0.048047,0.224171,0.115867,-0.147181,0.122453,0.030792,-0.007759,0.002343,0.159003,0.293671,0.068005,0.002659,-0.046268,0.044809,0.052609,0.363677,-0.164933,0.340210,-0.183178
0.167924,-0.053445,-0.099927,-0.038345,0.096197,-0.114884,0.126355,0.149875,-0.134769,-0.028310,-0.188539,-0.108397,0.261231,0.291973,-0.169299,0.104045,0.142933,0.010852,-0.081908,0.123461,0.260674,0.246135,-0.041878,0.099495,-0.122046,0.030667,0.118331,-0.247137,0.265702,-0.122248
-0.010500,-0.092816,0.001657,-0.091507,0.130217,-0.071151,0.115817,-0.152891,-0.099768,-0.096759,0.008128,-0.061451,0.155421,0.348973,-0.225012,-0.055111,0.091589,0.091403,-0.136412,0.221906,0.231617,0.286789,0.091401,0.067178,-0.123725,-0.013138,-0.096049,-0.164220,0.171328,-0.056674
-0.083250,-0.015632,-0.074797,-0.032444,0.092248,-0.092464,0.076788,-0.122845,-0.004317,0.040336,-0.012920,-0.020464,-0.069182,0.245031,-0.221406,-0.051066,0.091747,0.061477,-0.161949,0.013877,0.198775,0.303220,0.042373,0.112062,-0.188595,-0.059749,-0.213781,-0.266612,0.126658,0.099402
-0.244938,0.007732,-0.057292,-0.134504,0.177841,-0.089835,0.062615,-0.186803,0.002756,-0.044968,0.043619,0.000329,0.028886,0.118096,-0.154652,-0.014145,0.039576,-0.018178,-0.105360,0.142410,0.196187,0.277037,0.008614,0.108599,-0.263928,0.008164,-0.321068,-0.147552,0.135585,0.213587
-0.133692,-0.035827,0.003806,-0.035472,0.134672,-0.048770,0.026471,-0.129829,0.070078,0.093943,0.077928,-0.058498,-0.109652,-0.003900,-0.220721,-0.009140,0.076338,0.144163,0.002807,0.078290,0.140043,0.222901,-0.045237,0.086997,-0.139853,0.082247,-0.404119,-0.148158,0.112562,0.127154
-0.100318,-0.033719,-0.001761,-0.045956,0.080793,-0.069876,0.035008,-0.199013,0.005723,0.044085,-0.038475,-0.056763,0.011442,-0.104044,-0.137244,-0.102916,0.110607,0.082369,-0.019328,0.015497,0.186086,0.163042,-0.022327,0.032253,-0.061730,0.062349,-0.390613,-0.208188,0.102949,0.167766
-0.075553,0.025436,-0.056669,0.149183,0.075940,0.073957,0.157965,-0.033803,-0.015832,-0.004495,0.047015,0.057886,0.036692,-0.114315,-0.176628,-0.113897,0.022502,0.037038,0.063233,0.141680,0.150429,0.162340,0.118011,0.147302,-0.163741,-0.042727,-0.449872,-0.073946,-0.002767,0.050049
-0.002692,-0.003957,0.074306,0.233970,-0.022579,0.083315,0.120440,-0.052470,0.043948,0.043278,0.054652,0.164572,0.071927,-0.045902,-0.079439,-0.105381,-0.058778,0.002640,0.156395,0.123358,0.151492,0.116652,-0.013957,0.073398,-0.169308,-0.019805,-0.541111,-0.172453,0.010400,0.200719
-0.171517,-0.151009,0.038308,0.157692,-0.065052,0.079681,-0.029509,0.076482,0.106983,-0.097673,0.017343,0.252585,0.008988,-0.252861,0.037092,-0.144036,0.180583,-0.051119,0.272645,0.028486,0.081725,0.264117,-0.132528,0.140061,-0.060811,0.164582,-0.547842,-0.170396,-0.025327,0.318325
-0.060360,-0.114773,-0.060692,-0.030693,0.119913,0.014904,0.078944,0.046976,-0.003212,-0.273007,0.080710,0.343307,0.211853,-0.085820,0.219614,0.106370,0.210129,-0.070260,0.289491,0.084098,-0.232224,0.130416,0.024125,0.107974,-0.016432,0.133027,-0.382369,-0.028171,-0.126245,0.156124
0.382439,-0.280343,0.051527,0.101111,0.322347,-0.034191,0.293714,0.057890,-0.014108,-0.256730,0.247801,0.296541,0.331963,-0.023737,0.278467,0.130689,0.068883,-0.068923,0.256168,0.062458,-0.427686,0.179666,0.080804,0.109255,-0.031684,-0.057235,-0.233553,-0.062235,0.057575,0.197836
0.097649,-0.074316,0.020459,-0.127735,0.283669,0.136922,0.044099,0.032336,-0.221204,-0.142135,0.235698,0.388124,-0.077462,0.001412,0.309644,0.010725,-0.027450,0.057718,0.296267,-0.236950,-0.096892,-0.049702,0.120352,0.127255,0.185923,-0.253779,-0.054897,-0.006849,-0.121267,0.007691
0.011224,0.036617,0.129824,-0.047642,0.160440,0.121534,0.060226,0.007779,-0.172645,-0.102107,0.186948,0.043354,-0.001185,0.037958,0.074012,0.001712,-0.090701,-0.166631,0.082564,-0.051413,0.129947,0.102531,-0.122752,0.008167,-0.022067,-0.263512,-0.113051,0.058903,0.157968,-0.110019
-0.142053,0.123820,-0.026373,0.125687,0.078360,-0.070830,-0.023604,0.125530,0.220116,-0.055457,0.078096,-0.044972,-0.082315,-0.113353,-0.017098,0.058407,-0.064898,-0.075729,-0.067184,0.195597,-0.104235,0.009645,0.211545,-0.092905,0.049499,0.157499,0.060126,-0.012606,0.018260,0.143495
-0.226347,0.276065,0.131805,-0.067109,0.125116,-0.110040,0.210326,-0.141358,0.238401,0.137957,-0.065839,0.006287,-0.010866,0.258922,0.038093,-0.054522,-0.242157,-0.056734,-0.214933,0.026091,0.040480,-0.066406,0.046303,-0.031249,0.161851,0.045892,0.185881,0.275000,0.025194,0.171894
-0.151261,-0.182697,0.013690,-0.146690,-0.052587,0.015726,0.186589,0.031182,-0.056619,-0.043468,0.117121,0.289334,0.009333,0.017161,0.144044,0.057017,-0.064280,0.014376,-0.101395,0.092563,0.272997,0.061569,-0.000160,0.166425,-0.064438,0.055691,0.218691,0.207556,0.066402,0.114005
-0.076477,-0.080885,-0.013138,-0.076503,-0.159656,-0.091013,0.222107,0.129389,0.144788,0.051169,-0.030714,0.248245,-0.161980,0.100163,0.016301,-0.063480,0.034512,0.080209,-0.047405,-0.200425,0.106359,-0.192802,-0.062572,0.289736,-0.367195,-0.009552,-0.041151,0.143908,-0.084289,0.127690
0.050682,0.069983,0.039756,-0.294433,-0.112751,-0.056299,0.305806,0.375087,0.163551,0.116301,0.018884,0.195028,-0.107409,0.187844,0.067735,0.165737,-0.075405,0.105795,-0.007125,-0.170461,-0.143159,-0.509498,-0.239289,0.184275,-0.199166,-0.012893,0.204358,0.045595,-0.180213,-0.033950
0.072771,-0.165939,-0.112720,-0.288663,-0.074185,-0.102440,0.297146,0.156616,0.155155,-0.064649,0.125471,0.211848,-0.030485,-0.123426,0.099606,0.012886,-0.088688,-0.035097,0.141337,-0.341337,-0.140226,-0.250121,0.072162,0.163797,0.059676,0.040627,-0.070770,0.065897,-0.033902,0.141024
-0.106749,-0.062572,-0.025026,-0.390179,-0.035736,-0.138822,0.208576,-0.026644,0.228849,-0.151589,0.043861,0.182103,0.081242,0.030250,0.022053,0.011232,-0.187603,0.044035,0.043036,-0.163346,-0.079927,-0.062562,0.026540,0.093315,0.088026,-0.036841,0.044724,-0.001741,0.079333,-0.020302
-0.020434,-0.045599,-0.098704,-0.175529,0.047279,-0.151818,0.198534,-0.083765,0.217800,-0.098096,-0.136903,0.336947,0.046974,0.069592,-0.062549,-0.107867,-0.235936,0.135764,0.078871,-0.249220,0.027056,-0.106247,-0.120523,0.109328,0.085674,-0.163905,-0.064352,0.041978,0.011414,0.169508
0.114822,-0.106467,0.019315,-0.315797,-0.013784,-0.168997,0.263752,-0.092083,0.120211,-0.063066,0.022897,0.084754,0.040470,0.051025,-0.119568,-0.148261,-0.245712,0.120361,0.041047,-0.040563,0.019867,-0.196920,0.010268,0.112410,0.329316,-0.019808,0.078859,0.031010,0.162253,0.150107
0.110888,-0.027001,-0.048893,-0.224203,0.037938,-0.198959,0.096104,-0.083448,0.050488,-0.142951,0.182092,0.137926,0.026567,0.010499,0.046283,-0.052637,-0.146194,0.073868,0.106996,-0.052966,0.124259,0.025874,-0.100814,0.153906,0.319293,-0.114132,0.084658,0.173286,0.098065,0.038612
-0.051806,0.054074,0.024607,-0.283259,0.020976,-0.145807,0.156032,-0.043957,0.060124,-0.089605,0.212853,0.104549,0.119160,0.006169,-0.112980,-0.036853,-0.086087,0.059964,-0.026711,0.143346,0.272834,-0.029231,-0.121609,-0.088578,0.350736,-0.088882,0.074059,-0.012042,0.155758,0.152793
-0.086210,-0.054864,0.048491,-0.234083,0.005012,-0.110836,0.111138,0.063319,-0.121527,-0.150714,0.111481,0.068550,0.256813,-0.126663,-0.072978,-0.002375,0.036910,-0.062049,0.045420,0.098154,0.312178,0.086926,-0.152353,0.104418,0.245235,0.026345,0.101753,0.039216,0.226689,0.178292
-0.138081,-0.084950,-0.006247,-0.104090,0.105367,-0.066961,0.151641,0.112789,0.017787,-0.033228,0.066108,0.082911,0.088494,-0.148273,-0.062644,-0.122212,0.123654,0.016373,0.029415,0.117754,0.328342,0.150438,-0.115754,0.058498,0.042477,0.007267,0.255477,-0.109024,0.203227,0.198026
-0.001008,-0.017066,0.105877,0.032105,0.127168,0.030075,0.231954,0.167655,-0.025311,-0.037165,-0.097033,-0.003429,0.168742,0.028905,-0.104849,-0.044502,0.153114,0.025617,0.039770,0.052288,0.249203,0.230189,-0.167199,0.078558,-0.204369,0.110204,0.211267,-0.200845,0.203312,0.018850
-0.051146,-0.092339,0.024014,0.094006,0.069166,0.070955,0.377435,0.214816,-0.042973,0.052054,-0.087923,0.012143,0.084313,0.164511,-0.334705,-0.043333,0.112462,0.020351,-0.134033,-0.074175,0.236557,0.099539,0.027106,0.117788,-0.163540,0.087415,0.220586,-0.245113,0.231036,0.142507
-0.076274,0.042584,-0.079012,0.118960,0.008721,-0.039921,0.124485,0.137145,0.022981,0.080872,-0.095508,0.060917,-0.048764,0.296678,-0.225168,0.014593,0.058025,0.034256,-0.207364,-0.060579,0.230717,0.057443,0.031619,0.036891,-0.012864,0.019345,0.041439,-0.111471,0.192798,0.047125
-0.103995,0.062698,0.004503,0.300604,0.164266,-0.022145,-0.027751,-0.029041,0.124833,-0.073054,0.031745,0.120201,-0.113926,0.210069,-0.228162,0.088654,-0.010981,0.052660,-0.078830,0.177932,0.205674,0.137879,-0.023967,0.124609,-0.228954,0.051948,-0.239203,-0.230284,0.238183,-0.001096
-0.223747,0.060954,0.002126,0.278165,0.028318,0.038321,0.043475,-0.048876,0.207629,0.012491,0.205910,0.013521,-0.209316,0.111990,-0.177979,0.071042,-0.070721,0.097739,-0.069676,0.014025,0.144873,0.077858,-0.013281,0.088769,-0.112586,-0.143281,-0.292570,-0.188315,0.273592,0.096030
-0.136300,-0.076062,-0.020589,0.210342,-0.005907,-0.061041,-0.035449,-0.037706,0.186666,-0.011684,-0.003966,0.123397,-0.183176,0.257430,-0.203768,0.025717,0.094007,0.099499,-0.117344,0.014598,0.181527,0.061075,-0.157361,0.134812,-0.204245,0.017950,-0.420146,-0.094691,0.231723,0.218120
-0.146537,0.038424,0.037909,0.297908,0.022028,-0.071326,0.024236,-0.047804,0.107684,0.010108,0.055892,-0.023480,-0.087631,0.145999,-0.141029,-0.040270,-0.080191,0.088726,0.033432,0.118089,0.193587,0.111114,-0.158469,0.024484,-0.190882,0.085869,-0.307951,0.003769,0.011790,0.070837
-0.095294,-0.024663,0.080214,0.300645,0.034930,-0.120858,0.005664,-0.017787,0.081284,-0.003947,-0.001151,0.072458,-0.041499,-0.076126,-0.069730,0.053251,-0.029527,0.065023,-0.066181,-0.015459,0.163232,0.093586,-0.157744,0.146990,0.011736,0.071236,-0.332702,-0.007611,0.069584,0.141725
-0.014271,-0.174097,0.013247,0.326994,0.055352,-0.003466,0.086988,0.034799,0.036027,-0.078760,0.017261,-0.066021,-0.066392,0.024176,-0.016499,0.011322,0.069782,-0.017510,0.041059,0.159134,0.074882,0.044173,-0.019185,0.127274,-0.084388,0.215233,-0.477456,0.099528,-0.036059,0.047955
-0.029763,-0.082233,-0.030945,0.301787,0.004814,-0.066099,-0.034718,-0.032410,0.106492,-0.025593,0.031336,0.054030,-0.040781,-0.078589,-0.004677,0.044422,-0.016447,-0.032647,-0.005779,0.127976,0.225122,-0.014670,-0.263012,0.137999,-0.171777,0.110387,-0.473291,0.075965,0.015004,0.111889
-0.200194,-0.179951,0.142408,0.317310,-0.080853,0.021141,0.118059,0.091654,0.241026,0.049695,0.130626,0.353590,0.137951,-0.294545,-0.006397,0.018108,0.040466,-0.018187,0.144386,0.335018,0.098227,0.137070,-0.086863,0.032827,-0.092732,0.074711,-0.443514,0.109798,-0.068844,0.281818
-0.160031,-0.517989,0.120218,0.333328,0.167303,0.042514,0.019817,0.052045,0.170061,-0.122064,0.119040,0.382154,0.285850,-0.173784,0.034292,-0.023769,0.528794,0.082790,0.325767,0.234432,-0.373860,0.253620,-0.217690,-0.002405,0.005905,0.104595,-0.491093,0.250284,-0.031582,0.385588
0.274786,-0.478629,0.020804,0.106654,0.241783,0.141608,0.064651,-0.092262,0.009130,-0.059976,0.133173,0.548947,0.139125,-0.129903,0.333839,0.118105,0.400885,0.083825,0.522915,0.065842,-0.470909,0.147666,-0.186390,0.003552,0.140763,0.033823,-0.291959,0.242004,-0.038816,0.240610
0.369228,-0.078190,0.163568,-0.014289,0.289317,-0.017412,-0.036472,-0.001487,0.093954,-0.108862,0.021492,0.386813,0.133479,-0.000915,-0.071898,-0.085387,0.310585,0.239096,0.300878,0.113327,0.048359,0.049594,-0.180283,0.034402,0.150059,-0.165352,-0.174169,-0.065127,-0.150853,0.141647
0.244613,-0.043256,0.195452,0.091188,0.010233,-0.062819,0.008710,-0.006777,0.188190,0.042925,-0.111039,0.092455,0.267489,-0.097064,-0.111026,-0.035989,0.215333,0.068237,0.167916,0.150478,-0.023674,0.178107,-0.078829,-0.203625,-0.050673,-0.245765,-0.084363,-0.102752,0.188678,0.065182
0.018548,0.029673,-0.143370,-0.054375,0.024320,-0.052771,0.115831,-0.025854,0.130645,-0.008503,-0.097486,0.160821,0.083308,0.098874,0.082718,0.039147,-0.177726,0.039473,0.008979,-0.066745,0.013436,-0.024922,0.039005,0.041996,-0.038048,0.017738,-0.012087,0.086599,0.117667,0.084831
-0.198321,0.152523,-0.187484,-0.098846,0.119832,-0.188837,0.218388,-0.052711,0.208631,0.195048,-0.050336,0.027329,-0.126068,0.005909,0.117877,-0.066423,-0.262371,-0.009178,-0.116867,-0.143031,0.051457,-0.094642,0.038632,0.113874,-0.026664,-0.086337,0.154188,0.223145,0.039309,0.201779
0.025692,-0.091044,-0.011554,-0.061825,-0.133991,-0.067535,0.237550,0.112646,0.103380,0.133546,0.050286,0.171755,-0.160108,-0.149691,0.094501,0.071307,-0.083260,-0.069467,-0.124529,-0.107631,0.246510,0.024121,-0.194889,0.123107,-0.097072,-0.009719,0.198222,-0.020971,0.095515,0.047925
0.036988,0.111068,0.097183,0.041394,-0.261800,-0.252571,0.175761,0.149599,0.342648,0.052511,0.043926,0.149255,-0.052858,0.206049,-0.053787,0.011187,-0.294435,-0.007683,-0.132460,-0.024613,0.150447,-0.193586,0.011695,0.098051,-0.090940,-0.088020,0.054685,0.065506,0.082779,0.037653
0.030618,0.046048,-0.135501,-0.412973,0.083754,-0.201633,0.293727,0.202004,0.230854,0.123013,-0.126904,0.021672,-0.003515,0.154330,0.010041,0.020141,-0.180100,0.039329,-0.154775,-0.309042,-0.106453,-0.347122,-0.112162,0.127254,-0.080928,0.083597,0.291459,0.247334,0.021954,0.069687
0.079220,-0.035493,-0.020329,-0.345121,-0.156846,-0.215025,0.245487,-0.041636,0.035808,-0.078337,-0.032958,0.181500,0.015571,0.035217,-0.025969,-0.038683,-0.187807,0.022816,-0.034064,-0.309988,-0.132609,-0.284349,0.000456,0.139914,-0.038969,-0.045325,0.209788,0.117650,0.020896,0.077099
0.159922,-0.182822,-0.019481,-0.226071,0.088667,-0.145862,0.107982,-0.075551,0.118014,-0.076793,-0.088933,0.060000,0.065474,-0.009936,-0.179457,-0.074896,-0.210619,0.324037,0.092377,-0.161107,0.019962,-0.180606,-0.026114,0.063382,0.191185,0.031751,0.109142,-0.054308,0.094791,0.030365
0.278695,-0.029144,0.012345,-0.047768,0.021431,-0.113889,0.228281,-0.179978,0.174011,-0.077266,-0.065021,0.146525,0.056342,0.040909,-0.150381,-0.073442,-0.370057,0.063544,0.104804,-0.122682,0.177443,-0.090546,-0.064232,0.035829,0.281266,-0.013531,0.065734,0.107729,0.006000,0.030969
0.114118,0.012544,0.081800,-0.220209,0.093856,-0.264130,0.062633,-0.190514,0.056266,-0.080502,-0.119779,0.153340,0.031714,-0.012261,-0.099805,-0.100915,-0.256407,0.138291,0.099673,0.012338,0.138092,-0.044881,-0.106456,0.018619,0.355759,-0.088947,0.175872,0.020223,0.166555,0.017853
0.133137,-0.033504,0.056800,-0.104983,0.059636,-0.120957,0.231079,-0.082621,0.136852,-0.219397,0.077549,0.093112,0.043791,0.020002,-0.133053,-0.038867,-0.071801,0.121195,0.050979,0.036491,0.110420,-0.053080,-0.145802,0.127708,0.354247,-0.022989,0.109562,0.039658,0.056713,0.162851
0.182997,-0.183487,0.050269,-0.033009,0.021846,-0.109666,0.170715,-0.062506,0.019497,-0.239640,0.195587,0.016443,0.104528,-0.005731,-0.158467,-0.045443,-0.059264,0.094723,-0.043518,0.248277,0.110051,0.050618,0.002643,-0.064173,0.372954,-0.018634,0.239886,0.128264,0.138257,0.053619
-0.064897,-0.266470,0.142671,0.023612,-0.081041,-0.035900,0.151433,-0.079022,-0.028982,-0.215886,0.088645,0.105906,0.204359,-0.092537,-0.128701,-0.126487,0.048638,0.056674,0.147374,0.017436,0.177205,0.252200,-0.000886,0.033697,0.307294,0.043710,0.129070,0.116627,0.255159,0.162092
-0.125950,-0.153527,0.117082,0.012622,-0.043517,0.020929,0.271154,-0.004558,-0.044455,-0.212819,-0.024956,0.089187,0.154104,-0.157082,-0.054759,-0.066405,0.032448,0.097363,0.080016,0.055872,0.228976,0.164373,-0.070669,0.072961,-0.230117,0.164673,0.276812,0.114881,0.155080,0.225689
-0.047901,-0.255855,0.162380,0.239294,0.019211,0.059636,0.406062,0.184135,-0.019859,-0.179206,-0.095592,0.135316,0.009284,-0.113850,-0.243599,-0.078582,0.099086,0.079315,-0.120582,-0.099058,-0.004835,0.126048,0.004465,0.118071,-0.503604,0.205169,0.207645,-0.079234,0.093022,0.206721
-0.088305,-0.025089,0.102820,0.265061,-0.031411,-0.008304,0.304678,0.146381,0.139373,0.011689,-0.237095,-0.023363,-0.010038,0.071474,-0.232518,-0.081411,0.102643,0.141643,-0.269932,-0.136041,-0.015206,0.063226,0.086405,0.159879,-0.242161,0.197286,0.250164,-0.041697,0.092823,0.177842
-0.106432,0.105542,0.026212,0.371862,-0.179863,0.080509,0.145786,-0.038949,0.147488,0.146346,-0.045805,0.059024,-0.179727,0.072788,-0.356692,0.042478,-0.074450,0.077346,-0.300928,-0.202979,-0.124815,-0.265250,0.163934,0.138182,-0.178636,-0.082318,-0.022550,-0.114338,0.093027,0.132127
-0.185573,0.056033,-0.010083,0.266162,-0.176217,0.067552,-0.082504,-0.071729,0.159842,0.085448,0.057332,0.070512,-0.326111,0.238107,-0.145062,0.065139,-0.145368,0.098621,-0.142502,-0.119076,0.044464,-0.345427,0.019969,0.099935,-0.177235,-0.102140,-0.083518,-0.120395,0.143194,0.083096
-0.194272,-0.022803,0.085292,0.391679,-0.123366,-0.005784,-0.012390,-0.134317,0.111732,0.082365,0.089105,0.092374,-0.328137,0.192095,-0.145284,0.000566,-0.141120,0.113968,-0.132603,0.055764,0.172088,-0.336112,0.011144,0.041737,-0.137369,-0.132991,-0.123872,0.150552,0.061320,0.185950
-0.244697,-0.049387,0.103231,0.360616,-0.163855,-0.004043,0.054074,0.016711,0.115196,0.055111,0.198508,0.038224,-0.243664,0.205138,-0.030521,0.029623,-0.061627,0.161138,-0.033014,0.103935,0.135478,-0.375309,-0.004474,0.059010,-0.159361,-0.025602,-0.163442,0.151372,0.148904,0.184842
-0.049824,-0.106030,-0.026297,0.344093,-0.164534,-0.072503,-0.068580,0.052242,0.102301,-0.013371,0.076341,0.034175,-0.264910,0.162572,-0.071722,0.182476,-0.144531,0.159971,-0.045601,0.063593,0.082187,-0.328898,-0.082741,0.132797,-0.086697,0.053529,-0.318217,0.146774,0.025209,0.117719
0.022599,-0.146233,-0.108706,0.236839,-0.064106,-0.098672,-0.101373,0.111912,0.148379,-0.076527,-0.001187,0.004192,-0.167558,0.210399,-0.025657,0.179220,-0.087919,0.114766,-0.081717,0.179925,0.104601,-0.253117,-0.049970,0.210169,-0.117159,0.185021,-0.280500,0.335274,-0.040864,0.066817
-0.010201,-0.079691,-0.038099,0.143715,-0.002716,-0.015426,-0.074488,-0.052090,0.233513,0.007709,-0.008930,0.018339,-0.059372,-0.044323,0.039991,0.071276,-0.105362,-0.023931,0.036435,0.101427,-0.006110,-0.174590,-0.243460,0.175405,-0.251962,0.140263,-0.394032,0.308935,-0.118324,0.074994
0.032029,-0.080045,0.022571,0.188536,0.038450,0.064365,0.176368,-0.122131,0.222607,0.143042,-0.141917,0.189672,-0.105921,0.044142,-0.018441,0.048178,-0.059085,0.099518,-0.095628,0.159961,0.134103,-0.112786,-0.220161,0.185601,-0.274143,0.109842,-0.454935,0.267592,0.030739,0.129662
0.022100,-0.285362,0.208086,0.278516,0.180918,-0.044430,0.144620,0.084656,0.277234,0.011393,-0.076549,0.289553,-0.075706,-0.260586,-0.116306,0.195857,-0.081524,0.101169,0.014752,0.279953,0.104484,0.031934,-0.130018,0.040161,-0.148437,0.200905,-0.435295,0.209985,-0.154844,0.097368
-0.053309,-0.337120,0.235295,0.372292,0.103607,-0.057781,0.126118,0.215190,0.337268,-0.143511,-0.031041,0.171227,0.131586,-0.307362,0.117694,-0.001483,0.612677,0.008176,0.237111,0.389843,-0.500629,0.135598,-0.134634,-0.097048,0.223516,0.032741,-0.255956,0.409716,-0.036569,0.216877
0.218251,-0.324558,0.181642,0.249416,0.157561,-0.172475,0.280703,0.030009,0.228102,-0.182400,-0.050053,0.521775,0.226364,-0.229956,0.171049,0.136409,0.479561,0.103650,0.310068,0.144760,-0.423281,0.148728,-0.430852,-0.063398,0.083117,-0.005813,-0.197311,0.395314,0.030486,0.291315
0.160719,-0.215352,0.101731,0.079796,0.113388,-0.193192,-0.042181,-0.063214,0.128454,0.066154,-0.135845,0.438859,0.223757,-0.057266,0.027695,-0.168998,0.117693,0.166741,0.035419,0.043422,-0.186342,-0.037127,-0.326257,0.063055,0.197448,-0.129157,0.111591,-0.080866,-0.094153,0.096667
-0.052066,-0.116749,-0.071420,0.059087,0.102012,-0.088565,0.021733,-0.122406,0.015019,-0.041150,-0.183085,0.041605,-0.026247,-0.003556,-0.060992,-0.112578,-0.043168,-0.176768,-0.184825,-0.064781,0.013079,-0.169708,0.035579,0.121985,0.168511,-0.051407,0.163418,0.086999,0.087481,0.124333
-0.029576,-0.008638,-0.104609,-0.120534,-0.026209,-0.163892,0.164085,0.004290,0.050573,0.087982,-0.074546,0.091600,0.019578,0.002896,0.016270,-0.052144,-0.184229,0.011316,-0.109090,0.031656,0.037162,-0.084148,0.053102,0.094338,0.020292,0.020698,0.018783,0.116316,0.022507,0.009911
-0.261457,0.259017,-0.019430,-0.154801,-0.054247,-0.097728,0.199177,-0.011201,0.118972,0.116110,-0.038137,0.065483,-0.070606,-0.035568,0.189987,-0.192648,-0.048776,0.087126,-0.122563,-0.066486,0.150372,0.036706,-0.000261,0.118514,-0.136266,0.003648,0.169329,0.280413,0.149842,0.102674
-0.176778,-0.101055,-0.231747,0.030094,-0.018942,-0.188144,0.178090,-0.055529,0.245735,0.204034,0.052736,0.127286,-0.121057,-0.076754,0.009623,-0.125919,-0.159204,-0.116801,-0.294320,-0.137094,0.223079,0.092546,0.061836,0.204466,0.009617,0.087687,-0.002577,0.136536,0.216155,0.242011
0.082928,-0.175208,0.055805,-0.022288,-0.012092,-0.318999,0.066158,0.194390,0.224725,0.036334,0.134305,0.213252,-0.186715,0.182386,-0.039668,0.043529,-0.314829,0.041893,-0.435800,-0.037298,-0.027715,-0.115913,-0.066980,0.040828,-0.028303,-0.128158,0.233116,-0.050177,0.240969,0.098713
-0.052149,-0.035062,-0.003673,-0.314076,0.084964,-0.267057,0.257634,0.033914,0.224047,0.052007,-0.074053,0.056292,-0.024748,-0.028912,-0.057439,-0.140237,-0.200845,0.107989,-0.063166,-0.124625,-0.050167,-0.142361,-0.295914,0.132087,-0.005677,-0.060241,0.027616,0.246241,0.087364,0.069232
0.020183,-0.009865,0.076430,-0.202622,-0.052443,-0.292496,0.242053,-0.065447,-0.049513,-0.085847,0.046904,0.138852,0.096523,0.035829,-0.117048,0.002017,-0.442164,0.092041,-0.051909,-0.086875,0.040766,-0.133137,-0.048884,0.150641,0.021661,0.052642,0.251619,0.201031,0.140722,-0.125499
0.088210,-0.056527,0.142775,-0.112546,0.020936,-0.400442,0.141830,-0.086641,0.058893,-0.103029,-0.000172,0.103292,0.165234,0.011458,-0.193846,-0.091583,-0.462353,0.197663,-0.126098,0.029190,-0.069112,-0.107815,-0.135859,0.011694,0.120406,-0.166575,0.263153,0.064822,0.179898,-0.123007
0.183296,-0.010403,0.096985,0.019924,0.012213,-0.162166,0.175273,-0.047937,0.015453,-0.242495,-0.062267,0.069256,0.065145,0.023030,0.012133,-0.079715,-0.423930,0.219093,0.104952,-0.023359,-0.040677,0.017199,-0.014640,0.090183,0.255790,-0.022906,0.226973,-0.002832,0.066282,-0.035132
0.231941,0.003835,0.007325,0.025324,0.053815,-0.136380,0.089642,-0.107693,-0.051914,-0.106232,-0.059519,0.037025,0.081062,-0.166444,-0.078550,-0.058430,-0.193759,0.099359,0.136604,0.025734,0.073690,0.074893,-0.113448,-0.027920,0.368856,0.024060,0.093260,0.137980,0.206478,-0.001180
0.035562,-0.061132,0.035205,0.084178,0.031164,-0.091323,0.021614,-0.142992,0.072063,-0.214298,0.115569,0.178200,-0.026176,-0.161683,-0.083326,-0.017270,-0.083362,0.160838,0.059555,0.133847,0.021375,0.044486,-0.023804,0.194896,0.541832,0.068286,0.155950,0.215201,0.108409,0.088171
0.069047,-0.084783,0.092028,0.026021,-0.100000,-0.003113,0.202180,-0.045869,0.049776,-0.315453,-0.007715,0.073401,0.159601,-0.122437,-0.182708,-0.067476,0.049825,0.052914,0.194150,0.128326,-0.153015,0.072776,-0.089836,0.035102,0.354956,0.123227,0.056314,0.112766,0.022102,0.074236
0.064445,-0.227150,0.157808,0.133721,-0.081014,0.056597,0.336411,-0.140571,0.042419,-0.322817,0.038263,0.038986,0.124678,-0.079965,-0.016943,-0.181435,0.107154,0.112732,0.051605,0.180182,-0.236631,0.098759,0.071195,0.076766,-0.000422,0.140585,0.061992,0.123856,0.169351,0.170968
-0.050638,-0.370598,0.180507,0.144040,-0.002562,0.050250,0.250268,0.058199,0.072475,-0.169538,-0.060782,0.065371,0.112215,-0.228624,-0.083290,-0.161765,0.175693,0.024794,0.189316,0.056546,-0.446188,0.272754,0.032236,0.090724,-0.326429,0.204388,0.018274,0.192216,0.101031,0.200055
0.009354,-0.079401,0.058532,0.259666,-0.019307,0.055360,0.482578,0.192493,0.193655,-0.064775,-0.246032,0.018980,0.004957,-0.172496,-0.161907,-0.107225,0.104237,0.117833,-0.102797,-0.152295,-0.599703,0.058815,0.153075,0.125450,-0.591628,0.136955,0.041992,0.027084,0.146591,0.261211
0.008248,0.089776,0.099376,0.334909,-0.175046,0.064691,0.134446,0.331775,0.288809,0.061078,-0.410175,-0.045665,0.021169,-0.072807,-0.126488,-0.250964,0.101191,0.123258,-0.359654,-0.084326,-0.598891,-0.023151,0.108917,0.077779,-0.287848,-0.026612,0.151919,-0.005527,0.096276,0.194746
-0.057132,0.228650,0.071399,0.291377,-0.397880,0.207998,-0.122547,-0.044481,0.100730,0.245185,-0.195047,-0.058939,-0.154030,-0.054968,0.026247,-0.152088,0.045659,0.153481,-0.360940,-0.184926,-0.281657,-0.260028,0.104110,0.069666,-0.028585,-0.083190,-0.100858,-0.022735,0.041457,0.237617
-0.036001,0.077281,-0.081174,0.183574,-0.384194,0.112977,-0.244703,-0.084985,0.154964,0.102290,-0.086483,-0.057992,-0.191135,-0.011473,-0.077448,-0.018475,-0.149497,0.068566,-0.317828,-0.113273,-0.068580,-0.390345,0.036923,-0.035026,-0.047895,-0.115333,-0.050145,0.161667,0.134282,0.121681
-0.091516,-0.034551,0.069275,0.048219,-0.348934,0.051505,-0.047538,0.114053,0.139796,0.041607,0.179609,-0.036593,-0.367091,0.002572,-0.052196,0.133600,-0.022602,0.000200,-0.175884,0.048695,-0.037401,-0.430125,0.012217,0.016258,0.015241,-0.080214,-0.079577,0.278513,-0.038442,0.065496
0.002769,-0.111001,-0.008332,0.224988,-0.274465,-0.133286,-0.065588,0.069785,0.174443,-0.109513,0.025879,0.024075,-0.259136,0.217004,0.016234,0.135719,0.108959,0.157423,-0.161381,0.156475,0.016877,-0.473235,-0.028546,0.073665,-0.035271,-0.038656,-0.052201,0.404480,-0.048749,-0.018075
-0.014860,-0.170819,-0.004437,0.208278,-0.304246,-0.181009,-0.032504,-0.001880,0.091603,-0.056018,-0.074994,0.039507,-0.095351,0.159030,-0.083593,0.019751,-0.114865,0.199836,-0.071692,0.221909,0.001278,-0.556658,-0.024911,0.061322,-0.083176,0.051485,-0.247544,0.422597,-0.052597,-0.045367
0.163522,-0.081114,0.065583,0.177218,-0.152814,-0.092175,-0.037686,0.065258,0.343055,-0.162827,-0.040917,0.060236,-0.189670,0.262567,-0.091415,0.067799,-0.092941,0.156483,-0.165888,0.177441,0.005283,-0.436222,-0.098840,0.190328,-0.076212,0.089438,-0.215626,0.529021,-0.030579,-0.086208
0.066662,-0.080626,-0.069243,0.179119,-0.241653,-0.025562,0.022098,-0.039181,0.221266,-0.121043,-0.052187,0.017260,-0.179033,0.138863,-0.053182,0.063811,-0.177351,0.028797,-0.073685,0.156686,-0.051974,-0.362327,-0.238696,0.070713,-0.083406,0.107958,-0.345693,0.393459,-0.042156,-0.143318
-0.015751,-0.214194,-0.021043,0.131831,-0.156489,0.033113,0.099838,0.062286,0.226505,-0.221933,-0.157681,0.026580,-0.230079,0.050062,-0.096059,0.050558,0.044685,0.085359,-0.033524,0.190845,0.087509,-0.433055,-0.249523,0.136320,-0.259264,0.061222,-0.381012,0.325687,-0.030940,-0.077887
0.029827,-0.159844,-0.032628,0.241100,-0.085605,-0.016282,-0.107084,0.103712,0.306833,-0.264848,-0.105426,-0.095924,-0.165221,-0.099029,-0.081992,0.274548,0.128202,-0.005434,0.041409,0.304909,-0.099277,-0.268010,-0.218764,0.100587,-0.175437,0.118941,-0.175388,0.340492,-0.066015,-0.203822
-0.219672,-0.112768,0.126515,0.475887,-0.085057,0.103196,-0.135290,0.046550,0.217573,-0.204783,0.002781,-0.026873,-0.003014,-0.473274,-0.004448,0.105774,0.349300,-0.083836,0.207773,0.161919,-0.599083,-0.005923,-0.291932,-0.118734,0.127197,0.006204,-0.239922,0.451176,-0.083681,-0.043791
0.098225,-0.482928,0.050676,0.363533,-0.100491,0.145904,-0.004743,-0.366976,-0.037006,0.020164,0.077607,0.221324,0.133934,-0.198238,0.201762,0.048338,0.164026,-0.009000,-0.029118,-0.050773,-0.323693,0.056726,-0.294090,-0.070132,0.116719,-0.101096,-0.311707,0.441295,0.071510,0.164343
0.040873,-0.296176,0.117453,0.485413,0.188980,-0.119652,0.105430,-0.297950,0.157431,-0.054092,-0.300323,0.316940,0.324016,-0.220888,-0.009443,-0.024947,0.148146,-0.044373,-0.214458,0.106592,-0.036202,0.070251,-0.235702,-0.232836,0.155315,-0.330441,-0.019877,0.233112,0.150126,0.126125
-0.046534,-0.027923,-0.124718,0.124767,0.072973,-0.102341,0.074874,-0.057464,0.110930,0.027452,-0.209077,0.074801,0.017373,-0.013242,-0.043842,-0.179036,-0.068459,0.080986,-0.073632,-0.041228,0.102713,-0.175465,0.003884,0.054844,0.080098,0.107818,-0.061451,-0.135535,0.072684,0.109381
-0.125563,-0.011869,-0.181211,-0.098086,-0.028790,-0.097450,0.228782,-0.087123,0.079735,0.074162,-0.046108,0.014557,-0.069445,0.039582,-0.011075,-0.081660,-0.154350,0.130148,-0.043625,-0.211025,0.121902,0.050709,0.057744,0.100047,0.040793,-0.074499,-0.034004,0.173224,0.067255,0.109298
-0.196087,0.199315,-0.077131,0.023333,-0.083855,-0.080550,0.268977,0.107626,0.302767,0.162670,0.002517,0.014281,-0.067884,-0.137565,0.156047,-0.106589,-0.141504,-0.089783,-0.217983,-0.049744,-0.011653,-0.067505,0.044884,0.016575,-0.202141,-0.090187,0.043534,0.127109,0.220626,0.261205
-0.184188,-0.239520,-0.186066,0.110938,-0.067118,-0.096359,0.359522,-0.122342,0.253566,0.074640,0.021683,-0.058665,-0.056220,0.104730,0.111844,-0.186053,-0.073416,0.147591,-0.352182,-0.217206,0.182957,-0.101187,0.134792,0.383732,-0.279618,0.092860,0.078643,0.358083,0.215385,0.224663
-0.079621,-0.130578,-0.012603,-0.013324,0.087688,-0.254406,-0.217726,0.017294,0.263307,0.198324,0.131034,0.114145,-0.112032,0.015097,-0.008618,0.056298,-0.177188,0.088680,-0.309840,-0.056058,-0.037212,-0.174165,-0.044058,0.163846,-0.229913,-0.073077,0.110241,0.060100,0.135449,0.067463
-0.072457,-0.121243,0.017930,-0.196683,0.114121,-0.204058,0.040778,-0.254078,0.219798,-0.154441,-0.035813,-0.061526,0.192772,-0.068519,-0.083726,-0.023170,-0.109523,0.149216,-0.117597,-0.049055,-0.223641,-0.082761,-0.358371,-0.029750,0.010629,-0.152780,0.147166,0.301508,0.173689,-0.007190
0.115090,0.000579,0.159725,-0.171788,-0.029940,-0.167727,0.032279,-0.115045,-0.140081,-0.285662,0.019772,0.024244,0.288438,0.026952,-0.015541,-0.090698,-0.386094,0.242812,0.050692,0.009057,-0.115495,-0.007790,-0.242864,0.031640,0.048216,-0.113857,0.180078,0.137695,0.122150,-0.027735
0.025181,-0.033796,0.192996,-0.059536,-0.113051,-0.220457,-0.015193,-0.116465,0.002722,-0.245889,0.035458,0.127593,0.073162,-0.110838,-0.022215,-0.131200,-0.480593,0.122349,0.059763,0.112532,-0.114477,0.021060,-0.087894,-0.072669,0.293669,-0.010305,0.143847,-0.000612,0.142127,-0.046754
-0.017756,-0.108831,0.049871,-0.096229,-0.068146,-0.135005,-0.025593,-0.090766,-0.038569,-0.348938,0.035345,0.027023,-0.009902,-0.027956,-0.032259,-0.166902,-0.312675,0.193118,0.206634,0.181508,-0.074589,-0.064495,-0.057297,0.235123,0.297618,-0.012394,0.157701,0.090794,0.072756,-0.145569
0.067888,-0.146404,0.041647,0.072641,-0.061366,-0.101885,0.029215,-0.132613,0.000224,-0.252933,0.017406,0.165127,0.069631,0.075757,-0.027405,-0.087971,0.004009,0.253964,0.188705,0.150373,-0.148386,-0.014517,-0.019112,0.249018,0.451089,0.110253,0.041202,-0.008591,0.144949,0.010545
0.052032,-0.038725,0.031291,-0.009392,-0.152043,-0.006493,0.053564,-0.041227,-0.004969,-0.276046,0.153418,0.241487,0.111561,-0.047212,-0.057206,-0.079703,0.009544,0.152401,0.298954,0.068621,-0.189421,0.111714,-0.078678,0.289794,0.415523,0.210815,0.055431,0.113494,0.102135,-0.004902
0.128466,-0.217306,-0.019045,0.016930,-0.097463,0.011452,0.151621,-0.158237,-0.004628,-0.256036,0.050653,0.143009,0.003703,-0.107775,0.069276,-0.121530,0.069913,0.113166,0.278962,0.016823,-0.390983,-0.085066,-0.029620,0.196907,0.191946,0.244289,-0.114781,0.159247,-0.051183,0.089094
0.066599,-0.315629,0.002705,0.025798,-0.092512,0.064795,0.158804,0.000516,0.058890,-0.231505,-0.058778,0.108019,0.098707,-0.085096,0.006976,-0.096093,0.235036,0.117231,0.156440,0.085557,-0.505453,0.087511,0.153489,0.101226,-0.070428,0.274407,-0.000202,0.308598,0.052108,0.221439
0.145439,-0.234456,-0.073890,0.189046,-0.054372,0.181616,0.227088,0.132565,0.098131,-0.063357,-0.170030,0.059011,0.043922,-0.155323,0.182728,-0.066749,0.189011,0.255912,0.312376,-0.017379,-0.948300,0.081735,0.198731,0.198887,-0.339532,0.105916,-0.063713,0.227498,-0.050942,0.161189
0.106676,-0.040086,-0.148029,0.320726,0.108944,0.060355,0.056837,0.228512,0.340252,-0.055062,-0.360548,-0.178510,-0.052100,-0.131556,0.099815,-0.038054,0.304231,0.168131,0.239727,-0.099280,-0.925184,0.116914,0.188794,0.075893,-0.379603,-0.036013,-0.004490,0.018534,0.085847,0.023254
0.273497,0.272066,-0.127044,0.149609,-0.025223,0.131326,-0.095378,0.262775,0.173820,0.099076,-0.487999,-0.337044,-0.035728,-0.091007,-0.065854,-0.039459,0.333004,0.332543,-0.137711,-0.121242,-0.585932,-0.002996,0.016732,0.135803,-0.162225,-0.309081,0.052233,0.075987,-0.011537,0.020895
0.184649,0.107535,-0.097449,0.007993,-0.230714,0.256238,-0.355554,-0.000796,0.012292,0.107318,-0.209763,-0.085864,-0.002065,-0.208747,-0.004212,-0.080439,0.124056,0.233446,-0.283630,-0.129609,-0.135077,-0.317960,-0.067594,0.007363,0.018990,-0.172653,0.018326,-0.002095,-0.036399,0.087304
0.048957,-0.018901,-0.132507,-0.066938,-0.187167,0.051367,-0.160523,-0.100160,-0.087856,0.142953,-0.173287,-0.065655,-0.006975,0.002329,0.065383,0.013156,0.169952,0.153767,-0.122181,-0.113444,-0.115978,-0.238403,0.115485,-0.063588,0.101546,-0.145079,0.105851,0.196912,-0.048052,0.012295
0.224022,-0.136611,-0.140526,-0.138374,-0.176195,-0.088365,0.008532,0.073970,-0.009857,0.079475,-0.073484,-0.074300,-0.214507,0.054828,-0.027088,0.155208,0.224440,0.092565,-0.194904,-0.002192,-0.015859,-0.267832,0.077371,0.039938,0.070285,-0.104135,0.194476,0.333099,0.053791,0.101948
0.182953,-0.181176,-0.060614,-0.134502,-0.255121,-0.124318,0.023505,-0.098776,-0.001911,0.059936,-0.016597,-0.140133,-0.130434,0.242040,-0.103096,0.044280,0.127855,0.135638,-0.156401,0.034813,-0.113779,-0.220383,0.121017,-0.061954,0.058688,-0.097393,0.119083,0.430041,-0.009773,0.012502
0.163385,-0.025489,0.074884,-0.184143,-0.291885,-0.213383,-0.032820,-0.044731,0.194103,0.036933,-0.065035,-0.032893,-0.131283,0.266229,0.008103,0.151419,-0.057798,0.032446,-0.194801,0.186896,-0.087607,-0.399595,0.127497,-0.082639,-0.043817,-0.102069,-0.026373,0.356223,-0.079483,-0.073764
0.131346,-0.109259,-0.125877,0.031004,-0.334629,-0.174767,-0.199313,0.041494,0.125147,-0.089283,-0.086415,-0.104100,-0.063135,0.401252,-0.150927,0.028000,-0.008278,0.164174,-0.108919,0.260411,0.037982,-0.547793,0.016976,0.039648,0.097111,0.028396,0.013897,0.412982,0.014686,-0.256809
-0.045394,-0.013102,0.030815,0.052796,-0.418153,-0.011318,-0.009422,-0.047033,0.142929,-0.356854,-0.037294,-0.129932,-0.105487,0.324524,-0.109176,0.101876,-0.061488,0.055392,-0.218027,0.284295,-0.001544,-0.428288,-0.033397,0.007044,0.057913,-0.058715,-0.021899,0.317101,0.072831,-0.405258
-0.216941,-0.057447,-0.114251,0.276679,-0.434355,-0.104519,0.068931,0.080938,0.206379,-0.493137,-0.145050,-0.078024,-0.015527,0.080310,-0.028091,0.007312,-0.135386,0.143941,-0.055415,0.390377,-0.011171,-0.533626,-0.052212,0.154843,-0.070151,0.034225,-0.152921,0.282795,0.092652,-0.275257
-0.185129,0.125961,-0.104190,0.432001,-0.218354,-0.057805,-0.000717,0.190772,0.181418,-0.410676,-0.074116,-0.196477,0.094366,-0.099261,-0.245571,0.011480,0.214892,-0.018557,0.078367,0.310427,-0.043752,-0.373536,-0.370108,-0.002210,0.134438,0.030367,-0.065840,0.288776,0.090828,-0.381882
-0.282264,0.035948,-0.030187,0.421858,-0.235825,-0.105505,-0.098551,0.185316,0.339849,-0.368535,-0.120588,-0.157343,0.119401,-0.294525,-0.221797,0.040631,0.284152,-0.096219,0.111907,0.289090,-0.432176,0.001731,-0.412370,-0.244506,0.426020,0.021552,-0.190357,0.299262,-0.092181,-0.443479
0.109581,-0.128568,0.183606,0.355244,-0.189891,0.169914,0.021760,-0.082602,0.269184,-0.050222,-0.094994,0.127076,0.327106,-0.266743,-0.014365,0.225148,-0.096899,0.010155,0.065332,0.185175,0.014620,-0.065482,-0.471591,-0.320226,0.011879,-0.267254,-0.265013,0.366833,0.115575,0.001486
0.206274,-0.374899,0.209175,0.353331,0.177771,-0.218458,0.009523,0.024094,0.319206,-0.112204,-0.408018,0.322930,0.339453,-0.157569,-0.340827,-0.197215,0.130554,0.228303,0.159329,0.329176,0.057383,0.238549,-0.408898,-0.053459,-0.005558,-0.289354,-0.379793,0.154648,0.077594,0.170151
-0.199664,0.045581,0.142602,0.177328,0.115497,0.025466,0.115520,-0.153409,-0.002169,0.061393,-0.177915,-0.021134,-0.043636,-0.066346,-0.016502,-0.223156,-0.033604,0.026637,-0.208404,-0.095540,-0.168670,-0.072378,-0.085919,-0.118621,-0.125008,-0.036983,0.040852,0.053692,-0.148405,-0.006864
-0.203744,-0.000808,-0.087727,-0.113796,-0.127844,0.005656,0.059950,0.022394,-0.073248,-0.081944,-0.047904,0.018252,-0.002452,-0.087805,-0.022004,-0.175975,0.023996,0.044753,-0.063607,-0.140822,0.141167,-0.037660,0.021264,0.176155,0.088535,0.026837,-0.061723,0.088253,0.155933,0.087301
-0.273455,-0.088708,-0.119531,-0.157368,-0.026018,0.001456,0.162767,0.016199,0.213641,-0.014602,-0.019876,0.143294,-0.176534,-0.126240,0.062600,-0.284421,-0.196076,-0.033940,-0.156792,-0.167352,0.130346,-0.153115,0.066131,0.253326,-0.180917,-0.155638,0.211161,0.221232,0.192019,0.233637
-0.206763,-0.062646,-0.118559,-0.039527,-0.171074,-0.068309,0.308772,-0.172455,0.148337,0.204228,-0.027551,0.065677,0.061212,0.016156,0.103454,-0.213579,-0.049331,0.183689,-0.409420,-0.087013,-0.024767,-0.189206,0.195303,0.217595,-0.421539,-0.000115,0.125363,0.270296,0.142512,0.263183
-0.306228,-0.107468,-0.097512,0.098329,-0.096740,-0.238957,-0.238888,-0.146109,0.030213,0.105246,0.000159,0.075479,-0.000606,0.039310,-0.092615,-0.111371,-0.049814,0.328919,-0.201699,-0.035931,-0.130143,0.098571,-0.160011,0.202193,-0.010201,-0.101593,0.216174,0.001854,0.079321,-0.029650
-0.095237,-0.233556,0.037766,-0.044748,0.104234,-0.224107,-0.086861,-0.297881,-0.042136,-0.260726,-0.192475,-0.193648,0.074053,0.082378,-0.211546,-0.105847,-0.158149,0.292767,-0.255729,0.013216,-0.241950,-0.135402,-0.278828,-0.045403,0.166816,0.074840,0.126933,0.065463,0.195931,-0.112308
-0.048503,-0.187786,0.036571,0.056206,-0.007704,-0.417744,-0.241717,-0.156345,0.031883,-0.384063,0.065990,0.021304,0.139084,-0.128900,-0.041360,-0.093110,-0.264332,0.174804,-0.157295,0.080019,-0.250436,-0.084576,-0.242880,0.037659,0.004734,0.022645,0.091728,0.068436,0.121479,0.029456
-0.000353,-0.170256,0.127384,0.136429,-0.074123,-0.142289,-0.030644,0.048537,-0.154221,-0.408742,0.122564,-0.069430,0.017936,-0.102254,-0.031139,-0.125357,-0.239415,0.158322,0.133005,0.203242,-0.289662,0.111890,-0.193127,0.031718,0.310727,0.144421,0.076760,0.014736,0.058853,-0.055270
0.048099,-0.141961,0.209865,0.112818,-0.046059,0.081021,0.036700,-0.023714,-0.070385,-0.255385,0.137731,-0.009724,0.013670,-0.115708,-0.096062,-0.163036,-0.300883,0.161557,0.229852,0.051460,-0.377332,-0.013221,-0.120470,0.137350,0.263622,0.068912,-0.012840,0.111907,-0.078172,0.036975
0.103239,-0.073538,0.095065,0.004953,-0.120564,0.128368,0.014983,-0.083932,-0.060300,-0.269220,0.164099,-0.042307,-0.007963,-0.028645,0.096630,-0.150088,-0.168792,0.131678,0.082840,0.076052,-0.347550,-0.010650,-0.031139,0.086723,0.252144,0.098055,-0.087734,0.267242,0.059119,-0.035173
0.055112,-0.121554,0.000678,0.101635,0.031653,-0.006853,0.031560,0.080205,0.041399,-0.180415,0.014186,0.070090,0.039554,-0.098228,0.001701,-0.026298,0.091359,0.117564,0.103448,0.009158,-0.468931,0.056951,0.043468,0.115967,0.252814,0.232642,-0.178189,0.113096,-0.052469,-0.076534
0.184675,-0.271566,-0.046713,0.088575,-0.023966,0.180461,0.066874,0.071497,0.008958,0.017810,-0.038950,0.083603,-0.025450,-0.095444,0.177042,0.100432,0.055538,0.083632,0.086001,-0.035083,-0.456138,0.024121,0.152963,0.069040,0.081697,0.232672,-0.170274,0.234125,0.004855,0.116639
0.092063,-0.242696,-0.194586,-0.004004,0.062043,0.228750,0.042764,0.053372,0.115341,-0.066068,-0.040435,0.010795,-0.073380,-0.084972,0.326730,0.005350,0.251270,-0.014480,0.199785,-0.032495,-0.667340,0.099016,0.237488,0.084960,-0.037576,0.067914,-0.172584,0.224576,-0.132276,0.076040
0.318522,-0.060707,-0.256031,0.109414,0.270654,0.298345,-0.043427,0.049736,0.175283,0.036650,-0.202436,0.035543,-0.217645,-0.294367,0.477909,0.108261,0.158574,0.115538,0.310372,-0.130241,-0.705446,0.049127,0.309111,0.063016,-0.204170,-0.149593,-0.206498,-0.025910,-0.141555,0.117590
0.306100,0.197277,-0.249130,0.157335,0.168609,0.237690,-0.200504,0.232069,0.194179,-0.058622,-0.260439,-0.083585,-0.145102,-0.248479,0.284324,0.180447,0.342083,0.175190,0.234686,-0.036335,-0.543957,0.067196,0.249687,-0.096611,-0.248184,-0.350372,-0.014615,-0.129161,-0.080931,0.007959
0.454561,0.337863,-0.167983,0.114557,0.101019,0.253750,-0.333562,0.131200,0.154243,0.104209,-0.392095,-0.364918,-0.012809,-0.058445,0.162614,-0.031231,0.375701,0.246026,-0.152142,-0.003923,-0.093072,-0.035666,0.021599,-0.073404,-0.124807,-0.332105,0.205505,-0.082121,0.005513,0.007029
